tree
version=v3
num_class=1
num_tree_per_iteration=1
label_index=0
max_feature_idx=44
objective=regression
feature_names=year month day day_of_week is_weekend is_holiday store_id item_id perishability_days base_price price on_promotion sales_lag_1 sales_lag_7 sales_lag_14 sales_lag_28 sales_rolling_mean_7 sales_rolling_std_7 sales_rolling_max_7 sales_rolling_min_7 sales_rolling_mean_14 sales_rolling_std_14 sales_rolling_max_14 sales_rolling_min_14 sales_rolling_mean_28 sales_rolling_std_28 sales_rolling_max_28 sales_rolling_min_28 week_of_year quarter is_month_start is_month_end days_since_start day_of_month month_sin month_cos dow_sin dow_cos price_discount_pct price_vs_category_avg weekend_promo holiday_promo category_encoded store_type_encoded store_size_encoded
feature_infos=[2023:2024] [1:12] [1:31] [0:6] [0:1] [0:1] [1:5] [1:50] [2:7] [1.1000000000000001:16.91] [0.88:16.91] [0:1] [21:576] [21:576] [21:576] [21:576] [37.714285714285722:339] [2.4784787961252048:149.45504181461919] [45:576] [21:238] [41.928571428571431:310.64285714285722] [5.4455345149806789:137.66987508345662] [55:576] [21:202] [43.571428571428569:287.57142857142856] [8.4977432422754919:119.73530661752888] [63:576] [21:182] [1:52] [1:4] [0:1] [0:1] [28:588] [1:31] [-1:1] [-1:1] [-0.97492791218182362:0.97492791218182362] [-0.90096886790241903:1] [0:20.33898305084746] [0.32260208732644569:2.0932476348113691] [0:1] [0:1] [0:4] [0:2] [0:2]
tree_sizes=2876 2901 2897 2886 2923 2894 2890 2890 2881 2866 2871 2850 2871 2864 2870 2896 2885 2887 2892 2866 2886 2872 2884 2872 2878 2876 2893 2878 2860 2876 2866 2893 2873 2888 2883 2861 2880 2853 2872 2870 2840 2862 2848 2847 2868 2853 2883 2855 2878 2868 2872 2895 2858 2867 2923 2889 2847 2875 2893 2886 2885 2894 2874 2897 2882 2876 2879 2882 2922 2928 2869 2864 2889 2887 2888 2906 2899 2894 2919 2906 2897 2901 2885 2913 2870 2881 2883 2877 2890 2879 2843 2820 2894 2877 2883 2908 2868 2876 2882 2884 2916 2851 2814 2924 2884 2851 2815 2896 2887 2926 2850 2865 2905 2854 2905 2852 2898 2916 2886 2933 2946 2939 2918 2910 2911 2874 2906 2861 2945 2882 2886 2921 2882 2906 2892 2885 2925 2844 2912 2853 2887 2881 2895 2841 2889 2879 2870 2862 2886 2863 2864 2864 2861 2844 2874 2824 2825 2933 2832 2854 2893 2918 2931 2928 2904 2824 2906 2816 2831 2930 2900 2901 2824 2830 2884 2922 2789 2917 2836 2832 2835 2895 2910 2848 2889 2820 2904 2881 2860 2937 2890 2904 2824 2912 2828 2869 2831 2916 2866 2847 2824 2915 2888 2837 2822 2893 2822 2866 2880 2813 2856 2870 2864 2882 2910 2841 2872 2781 2909 2887 2897 2884 2844 2831 2849 2915 2902 2864 2878 2930 2757 2757 2830 2804 2814 2828 2871 2880 2852 2921 2859 2830 2859 2828 2790 2855 2822 2861 2871 2871 2866 2874 2821 2855 2939 2851 2914 2899 2871 2868 2815 2806 2764 2804 2910 2771 2903 2873 2774 2804 2896 2853 2849 2772 2903 2827 2842 2876 2866 2870 2833 2881 2837 2873 2869 2750 2840 2763 2817 2797 2823 2826 2803 2800 2802 2895 2872 2928 2859 2895 2803 2811 2828 2791 2859 2769 2875 2824 2820 2785 2908 2908 2844 2844 2832 2845 2839 2784 2869 2835 2846 2815 2784 2820 2819 2832 2780 2878 2841 2782 2857 2812 2815 2824 2840 2819 2877 2811 2889 2898 2810 2840 2900 2802 2804 2839 2896 2837 2822 2864 2838 2855 2900 2815 2839

Tree=0
num_leaves=31
num_cat=0
split_feature=20 11 3 11 13 20 20 3 3 20 24 20 20 3 20 20 20 20 19 3 3 3 20 3 3 3 3 20 20 20
split_gain=9.72903e+07 3.08247e+07 1.76591e+07 1.59582e+07 1.18987e+07 8.70068e+06 6.00092e+06 5.62867e+06 3.84502e+06 3.41125e+06 2.83032e+06 2.66668e+06 2.4355e+06 2.12443e+06 1.71644e+06 1.59849e+06 1.53684e+06 1.23891e+06 914857 850788 832983 747916 747025 643463 607126 596875 566508 641889 559543 508429
threshold=120.10714285714286 1.0000000180025095e-35 3.5000000000000004 1.0000000180025095e-35 86.500000000000014 163.67857142857147 165.53571428571431 3.5000000000000004 3.5000000000000004 85.178571428571431 79.160714285714292 96.678571428571445 162.89285714285717 3.5000000000000004 170.75000000000003 137.82142857142858 197.53571428571431 140.67857142857147 147.50000000000003 4.5000000000000009 3.5000000000000004 4.5000000000000009 101.67857142857144 4.5000000000000009 3.5000000000000004 4.5000000000000009 3.5000000000000004 97.392857142857167 79.964285714285737 138.39285714285717
decision_type=2 2 2 2 2 2 2 2 2 2 2 2 2 2 2 2 2 2 2 2 2 2 2 2 2 2 2 2 2 2
left_child=3 2 6 4 10 15 17 14 22 24 20 28 29 -11 -3 25 21 -2 -8 -17 -1 -7 -6 -13 -5 -4 27 -12 -10 -9
right_child=1 7 5 9 8 16 18 12 11 13 26 23 -14 -15 -16 19 -18 -19 -20 -21 -22 -23 -24 -25 -26 -27 -28 -29 -30 -31
leaf_value=112.87509951708407 115.41211230665178 119.35014170373321 116.43031581036796 114.83657478080649 113.86463595166336 118.63296304759119 117.3331664170354 121.53484888362553 114.1891388804645 116.85427504247551 113.73075742486704 115.48226444288203 126.46177640343194 119.14368519395086 122.49534699873581 117.44661232242564 121.71364763539844 116.26377259337261 118.82508170429823 118.66132146587057 113.67548099277933 120.19762295155044 114.68998641011717 116.34316438638756 116.40076431018106 117.4787488675547 114.79334916783087 114.42842182619857 115.11497900983734 123.44514683231627
leaf_weight=9100 9075 2028 2021 1461 4533 1143 4366 697 2243 2383 8677 3154 535 1763 552 2157 1271 8065 1344 4349 5060 2307 6939 6960 1078 4136 2649 5319 5991 701
leaf_count=9100 9075 2028 2021 1461 4533 1143 4366 697 2243 2383 8677 3154 535 1763 552 2157 1271 8065 1344 4349 5060 2307 6939 6960 1078 4136 2649 5319 5991 701
internal_value=115.829 117.634 117.194 114.626 114.37 118.395 116.281 121.552 115.082 116.944 113.681 115.531 123.592 117.828 120.023 117.712 120.227 115.813 117.684 118.259 113.161 119.679 114.364 116.075 115.501 117.135 114.123 113.996 114.863 122.493
internal_weight=0 44747 40234 67310 60625 17384 22850 4513 29820 6685 30805 18348 1933 4146 2580 12663 4721 17140 5710 6506 14160 3450 11472 10114 2539 6157 16645 13996 8234 1398
internal_count=112057 44747 40234 67310 60625 17384 22850 4513 29820 6685 30805 18348 1933 4146 2580 12663 4721 17140 5710 6506 14160 3450 11472 10114 2539 6157 16645 13996 8234 1398
is_linear=0
shrinkage=1


Tree=1
num_leaves=31
num_cat=0
split_feature=20 11 20 3 11 3 20 3 11 16 3 3 16 20 20 20 20 20 20 20 20 3 16 3 3 3 3 3 3 20
split_gain=8.78566e+07 2.59689e+07 1.61445e+07 1.49099e+07 1.19918e+07 7.32595e+06 6.66145e+06 4.73114e+06 4.62023e+06 4.61609e+06 2.73624e+06 2.07037e+06 1.76872e+06 1.49485e+06 1.43613e+06 1.32227e+06 1.19269e+06 968702 956227 941916 879822 759918 679308 670896 665497 663286 563933 488338 475426 420359
threshold=125.17857142857144 1.0000000180025095e-35 90.250000000000014 3.5000000000000004 1.0000000180025095e-35 3.5000000000000004 173.17857142857147 4.5000000000000009 1.0000000180025095e-35 173.07142857142858 3.5000000000000004 3.5000000000000004 172.07142857142858 146.39285714285717 160.46428571428575 107.32142857142858 71.750000000000014 145.17857142857147 108.46428571428574 211.32142857142861 71.750000000000014 4.5000000000000009 209.64285714285714 4.5000000000000009 4.5000000000000009 4.5000000000000009 4.5000000000000009 3.5000000000000004 4.5000000000000009 211.32142857142861
decision_type=2 2 2 2 2 2 2 2 2 2 2 2 2 2 2 2 2 2 2 2 2 2 2 2 2 2 2 2 2 2
left_child=2 3 8 9 5 18 13 12 10 17 20 -6 27 23 -9 28 -12 -2 -4 25 -1 -10 -11 -5 -15 -8 -17 -3 -7 -14
right_child=1 7 4 6 11 15 19 14 21 22 16 -13 29 24 -16 26 -18 -19 -20 -21 -22 -23 -24 -25 -26 -27 -28 -29 -30 -31
leaf_value=-2.9902459606463885 -0.22164237121090358 3.5089269021726164 -1.5760183091118618 0.86953431195994391 1.2324824012479627 -0.81145919838494884 3.0721207246930988 7.0779788500755707 -0.55441084753758563 1.5901507538198323 -2.1584125998517094 3.5292618788563743 6.169209509595273 1.9091436945729972 10.746485143763417 0.015406073498465764 -1.1397826258106132 0.56698851923641569 -0.89394929508287968 6.2464588460514996 -2.2306181801042757 1.1835960535674435 2.9780264052428875 1.9330564323560133 3.0906362014858768 4.7501712644123018 0.94117155894853421 5.4211814507304599 -0.016390654748285199 9.2849623549522793
leaf_weight=6178 8248 1752 11905 2203 2306 2837 896 782 2269 3534 4648 1708 557 1777 406 2470 7529 7376 9042 696 9960 870 1175 4538 3624 1723 4925 413 5575 135
leaf_count=6178 8248 1752 11905 2203 2306 2837 896 782 2269 3534 4648 1708 557 1777 406 2470 7529 7376 9042 696 9960 870 1175 4538 3624 1723 4925 413 5575 135
internal_value=0 1.88325 -1.04163 1.45406 -0.384993 -0.668388 2.62454 5.6806 -1.89271 0.564266 -2.09448 2.20985 4.57763 2.08214 8.3325 0.144229 -1.52861 0.150667 -1.2816 4.61106 -2.52144 -0.0726838 1.93651 1.58551 2.70195 4.17623 0.631962 3.87395 -0.28454 6.77831
internal_weight=0 39835 72222 35790 40768 36754 15457 4045 31454 20333 28315 4014 2857 12142 1188 15807 12177 15624 20947 3315 16138 3139 4709 6741 5401 2619 7395 2165 8412 692
internal_count=112057 39835 72222 35790 40768 36754 15457 4045 31454 20333 28315 4014 2857 12142 1188 15807 12177 15624 20947 3315 16138 3139 4709 6741 5401 2619 7395 2165 8412 692
is_linear=0
shrinkage=0.05


Tree=2
num_leaves=31
num_cat=0
split_feature=20 11 3 11 20 20 3 20 3 20 3 20 3 16 16 20 20 20 24 16 3 20 20 3 3 3 16 3 20 3
split_gain=7.94303e+07 2.51635e+07 1.43904e+07 1.29651e+07 9.76391e+06 7.12888e+06 5.94803e+06 4.93403e+06 4.62122e+06 2.81228e+06 2.13012e+06 2.01881e+06 1.74202e+06 1.45146e+06 1.36997e+06 1.31415e+06 1.01504e+06 967930 845965 778381 700756 666605 638011 507114 486914 480876 461187 459424 447187 427511
threshold=120.10714285714286 1.0000000180025095e-35 3.5000000000000004 1.0000000180025095e-35 87.607142857142875 163.67857142857147 3.5000000000000004 165.53571428571431 3.5000000000000004 85.178571428571431 4.5000000000000009 163.67857142857147 4.5000000000000009 172.07142857142858 192.92857142857147 137.25000000000003 135.53571428571431 103.53571428571429 69.910714285714292 209.64285714285714 4.5000000000000009 105.75000000000001 70.464285714285737 3.5000000000000004 4.5000000000000009 4.5000000000000009 221.35714285714289 4.5000000000000009 142.82142857142858 4.5000000000000009
decision_type=2 2 2 2 2 2 2 2 2 2 2 2 2 2 2 2 2 2 2 2 2 2 2 2 2 2 2 2 2 2
left_child=3 2 7 4 10 15 21 16 13 23 18 28 -11 -3 24 25 -2 -8 -1 -9 -17 -6 -12 -5 -7 -4 -13 -19 -10 -16
right_child=1 8 5 9 6 14 17 19 11 12 22 26 -14 -15 29 20 -18 27 -20 -21 -22 -23 -24 -25 -26 -27 -28 -29 -30 -31
leaf_value=-2.8032509479990142 -0.47549790612746157 3.1619774286691946 0.52029357688014199 -0.91486352779999747 -1.5818809415217752 2.439310989859615 -0.41264436633441975 1.3850582206059041 5.2968767126910405 1.1589506444502069 -1.9284190142643554 9.0824266464788437 3.430890389273725 6.0410192859597123 3.963441066535665 1.455882845394642 0.30647556879742743 -0.17932549945023327 -2.0948854893098736 2.8300604810442689 2.5441267128973486 -0.99532006870265732 -0.96582291619573324 0.51469836046919404 3.7862719639795426 1.4747415257105292 13.408715737775365 0.66824820553579034 7.1089023801740572 5.6509233489006538
leaf_weight=6700 7048 2021 1962 1461 11982 1013 8008 4537 835 2967 2826 448 1179 559 557 2216 10092 2396 11371 1173 4453 8132 4405 1078 1992 4032 72 4805 578 1159
leaf_count=6700 7048 2021 1962 1461 11982 1013 8008 4537 835 2967 2826 448 1179 559 557 2216 10092 2396 11371 1173 4453 8132 4405 1078 1992 4032 72 4805 578 1159
internal_value=0 1.63091 1.23379 -1.08716 -1.31759 2.31791 -0.780551 0.409001 5.17115 1.00257 -2.06733 7.01966 1.80509 3.78598 3.97618 1.69965 -0.015074 -0.0343991 -2.35753 1.68195 2.18255 -1.34474 -1.34204 -0.307907 3.3323 1.16234 9.68392 0.386234 6.03856 5.10345
internal_weight=0 44747 40234 67310 60625 17384 35323 22850 4513 6685 25302 1933 4146 2580 4721 12663 17140 15209 18071 5710 6669 20114 7231 2539 3005 5994 520 7201 1413 1716
internal_count=112057 44747 40234 67310 60625 17384 35323 22850 4513 6685 25302 1933 4146 2580 4721 12663 17140 15209 18071 5710 6669 20114 7231 2539 3005 5994 520 7201 1413 1716
is_linear=0
shrinkage=0.05


Tree=3
num_leaves=31
num_cat=0
split_feature=20 11 13 3 11 16 11 3 16 3 20 20 16 16 20 24 19 3 20 20 3 20 3 3 19 3 20 20 3 3
split_gain=7.169e+07 2.11945e+07 1.33677e+07 1.21527e+07 8.54551e+06 5.47102e+06 4.88431e+06 3.95083e+06 3.81378e+06 3.00308e+06 2.70928e+06 1.96788e+06 1.42959e+06 1.21887e+06 1.1261e+06 990958 926541 915497 806841 802762 771754 702811 609232 578664 560914 535790 668140 464702 463743 430316
threshold=125.17857142857144 1.0000000180025095e-35 90.500000000000014 3.5000000000000004 1.0000000180025095e-35 173.07142857142858 1.0000000180025095e-35 4.5000000000000009 173.07142857142858 4.5000000000000009 79.464285714285737 98.821428571428584 162.50000000000003 161.6428571428572 149.39285714285717 104.16071428571431 155.50000000000003 4.5000000000000009 146.39285714285717 76.535714285714292 3.5000000000000004 101.67857142857144 4.5000000000000009 4.5000000000000009 149.50000000000003 3.5000000000000004 98.821428571428584 211.32142857142861 3.5000000000000004 4.5000000000000009
decision_type=2 2 2 2 2 2 2 2 2 2 2 2 2 2 2 2 2 2 2 2 2 2 2 2 2 2 2 2 2 2
left_child=2 3 6 8 9 14 10 12 18 15 20 -11 -3 -9 22 -4 23 -6 -2 -8 -1 -19 -5 -7 -10 26 -12 -14 -17 -16
right_child=1 7 4 5 17 16 19 13 24 11 25 -13 27 -15 29 28 -18 21 -20 -21 -22 -23 -24 -25 -26 -27 -28 -29 -30 -31
leaf_value=-2.5395228804584513 -0.1858554648402525 3.3353347454756483 -1.3855656602233317 0.83871760512373905 1.430262156075488 2.683425979372204 -0.79032361206915946 6.3646435880393364 1.4355639086863268 -0.58522482639326678 -1.7549384194553725 0.61521574975548121 5.2567436581276823 9.7139560170773507 1.782640456436936 -0.81467074108881521 5.6992120334119036 2.0869930586579577 0.53757440955569102 0.69969631409784472 -1.8025148916521236 4.2411755475439232 1.7956992658207462 4.1752979335732388 2.6828572268631126 -0.7998463007874248 -1.1003494146302379 8.4182425023176322 -0.033492631502163077 2.8472858596734505
leaf_weight=9496 8712 1909 6955 2478 1820 977 1474 766 3494 6269 9740 7496 812 422 1418 6954 703 812 6912 2337 5677 710 5059 1947 1215 3367 6501 136 2614 2875
leaf_count=9496 8712 1909 6955 2478 1820 977 1474 766 3494 6269 9740 7496 812 422 1418 6954 703 812 6912 2337 5677 710 5059 1947 1215 3367 6501 136 2614 2875
internal_value=0 1.70119 -0.940921 1.31345 -0.21222 2.37018 -1.57593 5.13175 0.51013 -0.476977 -1.76212 0.0684979 4.12384 7.5551 1.84929 -0.9314 4.06904 2.18717 0.134188 0.123387 -2.26378 3.09212 1.48108 3.67693 1.75744 -1.37392 -1.49293 5.71114 -0.601254 2.49568
internal_weight=0 39835 72222 35790 33630 15457 38592 4045 20333 30288 34781 13765 2857 1188 11830 16523 3627 3342 15624 3811 15173 1522 7537 2924 4709 19608 16241 948 9568 4293
internal_count=112057 39835 72222 35790 33630 15457 38592 4045 20333 30288 34781 13765 2857 1188 11830 16523 3627 3342 15624 3811 15173 1522 7537 2924 4709 19608 16241 948 9568 4293
is_linear=0
shrinkage=0.05


Tree=4
num_leaves=31
num_cat=0
split_feature=20 11 36 11 20 20 36 20 36 13 20 4 20 20 19 20 36 20 4 28 20 4 4 20 20 20 20 20 20 20
split_gain=6.49146e+07 2.10737e+07 1.20215e+07 1.00759e+07 7.49082e+06 6.16222e+06 4.6094e+06 4.27933e+06 3.94896e+06 2.20261e+06 1.76982e+06 1.7472e+06 1.28887e+06 1.23119e+06 1.12384e+06 916881 743530 726602 705429 689690 630536 596837 593974 546341 532573 515350 480846 462271 459990 428747
threshold=118.39285714285717 1.0000000180025095e-35 -1.0000000180025095e-35 1.0000000180025095e-35 87.607142857142875 163.67857142857147 -1.0000000180025095e-35 164.53571428571431 -1.0000000180025095e-35 83.500000000000014 170.75000000000003 1.0000000180025095e-35 150.60714285714289 136.17857142857147 151.50000000000003 135.53571428571431 -1.0000000180025095e-35 67.964285714285737 1.0000000180025095e-35 22.500000000000004 211.32142857142861 1.0000000180025095e-35 1.0000000180025095e-35 97.750000000000014 69.892857142857153 142.82142857142858 78.964285714285737 106.10714285714286 101.67857142857144 188.53571428571431
decision_type=2 2 2 2 2 2 2 2 2 2 2 2 2 2 2 2 2 2 2 2 2 2 2 2 2 2 2 2 2 2
left_child=3 2 5 4 11 13 18 15 10 26 25 17 -10 -2 22 -4 23 -1 -6 -9 -21 -15 -7 -11 -13 -3 -5 -20 -8 -14
right_child=1 8 7 9 6 14 28 19 12 16 -12 24 29 21 -16 -17 -18 -19 27 20 -22 -23 -24 -25 -26 -27 -28 -29 -30 -31
leaf_value=-2.5897643097771756 0.98968365740911912 4.7452715308904878 -0.45364262606608108 -0.74850954033084527 -0.55200623009733352 2.3538783729712565 -1.4903882509191939 0.37554786566472037 2.4063588825868854 1.531970868397357 9.203736238795889 -1.7702189747731116 4.0685315698610989 1.2952887462615754 5.2312793503164512 0.26720043506613816 0.82534560363002551 -1.9137425086062139 -0.077086551245796484 1.4982885841103004 3.0274752892698022 2.2762365942063401 3.6697860193506715 3.1653887421045304 -0.88332983464356762 6.5647317400188827 0.5001461031703206 0.64109203207820087 -1.000750204785267 6.3177554985746687
leaf_weight=5906 6353 906 7969 1531 4870 1287 9461 1114 1537 1054 413 2704 858 2320 859 9881 1383 12165 6113 3996 811 4679 2575 996 4527 685 1553 3537 9732 282
leaf_count=5906 6353 906 7969 1531 4870 1287 9461 1114 1537 1054 413 2704 858 2320 859 9881 1383 12165 6113 3996 811 4679 2575 996 4527 685 1553 3537 9732 282
internal_value=0 1.42666 1.07073 -1.01559 -1.22162 2.04267 -0.733604 0.331765 4.60822 0.850098 6.28674 -1.87186 3.35149 1.49366 3.59534 -0.0546151 1.72131 -2.13469 -0.0614291 1.49656 1.75634 1.9511 3.23134 2.32569 -1.215 5.529 -0.119731 0.18615 -1.24212 4.62543
internal_weight=0 46525 41844 65532 59015 18073 33713 23771 4681 6517 2004 25302 2677 13352 4721 17850 3433 18071 14520 5921 4807 6999 3862 2050 7231 1591 3084 9650 19193 1140
internal_count=112057 46525 41844 65532 59015 18073 33713 23771 4681 6517 2004 25302 2677 13352 4721 17850 3433 18071 14520 5921 4807 6999 3862 2050 7231 1591 3084 9650 19193 1140
is_linear=0
shrinkage=0.05


Tree=5
num_leaves=31
num_cat=0
split_feature=16 11 3 11 20 20 36 20 3 14 3 19 20 16 20 16 3 20 20 28 20 20 20 3 20 3 20 3 20 37
split_gain=5.84801e+07 1.85147e+07 1.0903e+07 9.46853e+06 7.16029e+06 5.26053e+06 4.22866e+06 3.79625e+06 3.69736e+06 2.23504e+06 1.64461e+06 1.46079e+06 1.36752e+06 1.13017e+06 935594 763510 695085 662751 659991 586288 571199 517497 508081 492112 489541 488622 467579 408155 404951 394968
threshold=119.92857142857144 1.0000000180025095e-35 3.5000000000000004 1.0000000180025095e-35 87.964285714285737 173.17857142857147 -1.0000000180025095e-35 168.60714285714289 4.5000000000000009 87.500000000000014 4.5000000000000009 112.50000000000001 144.03571428571431 177.50000000000003 135.53571428571431 209.64285714285714 4.5000000000000009 106.89285714285717 70.464285714285737 22.500000000000004 76.535714285714292 216.46428571428575 107.32142857142858 4.5000000000000009 71.107142857142875 4.5000000000000009 211.32142857142861 4.5000000000000009 101.67857142857144 -0.56174490092936669
decision_type=2 2 2 2 2 2 2 2 2 2 2 2 2 2 2 2 2 2 2 2 2 2 2 2 2 2 2 2 2 2
left_child=3 2 7 4 10 12 17 14 11 20 18 -3 23 -10 -2 27 -11 29 -1 -9 -5 -21 -8 -4 -12 -14 -13 -7 -18 -6
right_child=1 8 5 9 6 15 22 19 13 16 24 26 25 -15 -16 -17 28 -19 -20 21 -22 -23 -24 -25 -26 -27 -28 -29 -30 -31
leaf_value=-2.3980302561751561 -0.43136206745010269 2.7669219148439117 0.58386336598528377 -0.7891984955643534 -0.75049400127745503 2.4331674621195063 -1.3375759094122994 0.32581926436801917 5.9780441345747022 1.1334787996816367 -1.6327921370674916 4.64892167340673 1.5095814912207857 9.8004887733960349 0.30140213693321366 5.0758679451103639 1.9259103767969354 0.39609341047887825 -1.7830051736111394 1.5388461966849105 0.50736725592445164 3.065200437990383 -0.81086434607667646 1.421149481589798 -0.79925139465033601 2.4594670090076476 7.8570781631528384 3.8017686316956176 3.6345394873614993 -0.061332681202640821
leaf_weight=7119 7432 2145 2615 1440 3121 820 12662 840 1078 1744 2950 910 2035 236 10525 860 857 5608 11271 3683 2071 654 7173 5337 4373 4049 130 1628 583 6227
leaf_count=7119 7432 2145 2615 1440 3121 820 12662 840 1078 1744 2950 910 2035 236 10525 860 857 5608 11271 3683 2071 654 7173 5337 4373 4049 130 1628 583 6227
internal_value=0 1.39078 1.05257 -0.93863 -1.13606 2.0003 -0.668444 0.342039 4.43363 0.845572 -1.76876 3.51277 1.57754 6.66527 -0.00187299 3.79398 1.80488 -0.0336291 -2.0211 1.53491 -0.0244116 1.76908 -1.1471 1.14582 -1.13505 2.14178 5.05066 3.34345 2.61788 -0.291428
internal_weight=0 44977 40478 67199 60504 17344 34791 23134 4499 6695 25713 3185 14036 1314 17957 3308 3184 14956 18390 5177 3511 4337 19835 7952 7323 6084 1040 2448 1440 9348
internal_count=112176 44977 40478 67199 60504 17344 34791 23134 4499 6695 25713 3185 14036 1314 17957 3308 3184 14956 18390 5177 3511 4337 19835 7952 7323 6084 1040 2448 1440 9348
is_linear=0
shrinkage=0.05


Tree=6
num_leaves=31
num_cat=0
split_feature=16 11 24 3 11 16 3 3 16 11 3 3 16 24 23 24 24 3 3 24 16 3 16 24 16 3 28 24 24 3
split_gain=5.28829e+07 1.57767e+07 9.59106e+06 9.2705e+06 6.88361e+06 4.24106e+06 3.98841e+06 3.08585e+06 2.96167e+06 2.92957e+06 1.95254e+06 1.28241e+06 1.15236e+06 1.04236e+06 922657 842010 769999 688169 625193 609002 604258 534840 478600 456102 440196 349066 316200 307592 298190 284315
threshold=124.21428571428572 1.0000000180025095e-35 92.232142857142875 3.5000000000000004 1.0000000180025095e-35 177.50000000000003 3.5000000000000004 4.5000000000000009 174.07142857142858 1.0000000180025095e-35 3.5000000000000004 3.5000000000000004 170.07142857142858 139.48214285714289 116.50000000000001 74.982142857142875 139.48214285714289 3.5000000000000004 4.5000000000000009 73.839285714285737 213.21428571428575 4.5000000000000009 107.50000000000001 109.66071428571431 221.35714285714289 4.5000000000000009 1.5000000000000002 146.37500000000003 72.767857142857153 4.5000000000000009
decision_type=2 2 2 2 2 2 2 2 2 2 2 2 2 2 2 2 2 2 2 2 2 2 2 2 2 2 2 2 2 2
left_child=2 3 9 8 6 13 23 12 16 10 19 -6 27 29 -9 -12 -2 -11 -8 -1 25 -15 -20 -4 -10 -7 -18 -3 -19 -5
right_child=1 7 4 5 11 20 18 14 24 17 15 -13 -14 21 -16 -17 26 28 22 -21 -22 -23 -24 -25 -26 -27 -28 -29 -30 -31
leaf_value=-2.2993946119890381 -0.28108326192367689 2.446622060684057 -1.1796104469511408 0.57497985848062372 0.96367087988394362 2.4141384539882882 -0.33823646888204123 5.8216219116533843 1.328966297975831 -0.65395681225272595 -1.5909367649259858 2.8395025676348786 5.2529625178600705 1.4039822453496813 9.3026869809512398 -0.77898318567288871 -1.4257352974517854 -0.12820794007383576 0.029203671154027749 -1.6956340012625866 4.92085974704887 2.3143603619172728 0.73252550956466189 -0.68777192206600823 2.6756697628245125 3.724871745936718 0.45555035630141005 3.6596729273752637 1.3549212434850806 1.3473924537835813
leaf_weight=7021 7271 1319 11159 1780 2136 760 4896 958 3862 1946 5622 1589 705 2423 238 7391 229 548 5230 10316 757 4832 4500 8162 720 1537 8910 867 888 3604
leaf_count=7021 7271 1319 11159 1780 2136 760 4896 958 3862 1946 5622 1589 705 2423 238 7391 229 548 5230 10316 757 4832 4500 8162 720 1537 8910 867 888 3604
internal_value=0 1.43226 -0.824762 1.10396 -0.276416 2.02324 -0.500305 4.37895 0.416725 -1.43715 -1.5927 1.76391 3.49504 1.61917 6.51507 -1.12978 0.102898 -0.0412852 0.122598 -1.94015 3.69539 2.01034 0.354486 -0.971842 1.54064 3.29132 0.408395 2.92788 0.788963 1.09204
internal_weight=0 40772 71404 36685 37672 15693 33947 4087 20992 33732 30350 3725 2891 12639 1196 13013 16410 3382 14626 17337 3054 7255 9730 19321 4582 2297 9139 2186 1436 5384
internal_count=112176 40772 71404 36685 37672 15693 33947 4087 20992 33732 30350 3725 2891 12639 1196 13013 16410 3382 14626 17337 3054 7255 9730 19321 4582 2297 9139 2186 1436 5384
is_linear=0
shrinkage=0.05


Tree=7
num_leaves=31
num_cat=0
split_feature=20 38 3 38 20 20 3 20 3 20 20 3 16 3 20 12 20 20 3 28 16 20 20 3 16 20 3 24 24 20
split_gain=4.78983e+07 1.51302e+07 8.75425e+06 7.79843e+06 5.90384e+06 4.37342e+06 3.77097e+06 3.07737e+06 2.93281e+06 1.88857e+06 1.28014e+06 1.17743e+06 1.08082e+06 944077 865613 770637 712804 694710 658826 510981 466809 455577 435440 413743 407437 394579 357685 348927 316355 293425
threshold=120.10714285714286 1.0000000180025095e-35 3.5000000000000004 1.0000000180025095e-35 85.178571428571431 161.25000000000003 4.5000000000000009 168.60714285714289 3.5000000000000004 93.464285714285737 157.67857142857147 3.5000000000000004 199.07142857142861 3.5000000000000004 147.53571428571431 125.50000000000001 142.25000000000003 99.178571428571445 4.5000000000000009 22.500000000000004 103.64285714285715 67.964285714285737 224.17857142857147 3.5000000000000004 221.35714285714289 211.32142857142861 4.5000000000000009 139.48214285714289 66.410714285714292 71.750000000000014
decision_type=2 2 2 2 2 2 2 2 2 2 2 2 2 2 2 2 2 2 2 2 2 2 2 2 2 2 2 2 2 2
left_child=3 2 7 4 11 15 17 16 14 18 -10 28 26 -11 -3 -4 -2 -6 29 -9 -8 -13 -21 -19 -12 -16 -7 -17 -1 -5
right_child=1 8 5 9 6 12 20 19 10 13 24 21 -14 -15 25 27 -18 23 -20 22 -22 -23 -24 -25 -26 -27 -28 -29 -30 -31
leaf_value=-2.3303335422908353 -0.27748988530754948 2.0080287109150681 0.72620728902372855 -1.1747944955445158 -1.2490108727525142 1.9131409256201228 -0.14460878355680326 0.26415061054157296 4.5657203213927771 0.91034184994615208 6.8384940481695855 -1.6994304021275271 4.2527819284649269 2.6583818415931604 3.5879381773892627 1.2376610280060216 0.35786597148896576 -0.8675484309371857 1.0711357067201854 1.4320372456258939 0.51806264111624412 -0.99031395109159925 3.0104817356934683 -0.22303043683521728 10.806597555971996 6.809717585511442 2.9435758511726386 1.8932454919394204 -1.8027634208383578 -0.053593877522884407
leaf_weight=4205 9816 1301 4029 889 11641 1263 6007 840 1273 1802 589 3555 1340 1352 1111 3981 8022 12365 1002 3844 4766 6244 493 3118 73 104 2533 4143 8777 1698
leaf_count=4205 9816 1301 4029 889 11641 1263 6007 840 1273 1802 589 3555 1340 1352 1111 3981 8022 12365 1002 3844 4766 6244 493 3118 73 104 2533 4143 8777 1698
internal_value=0 1.26392 0.958399 -0.845981 -1.02524 1.80861 -0.64285 0.319714 4.0303 0.767124 5.49385 -1.66136 3.03188 1.65972 2.90454 1.29162 0.00823872 -0.957179 -0.0173114 1.39292 0.14856 -1.24759 1.61153 -0.737757 7.27764 3.86425 2.60079 1.57201 -1.97367 -0.438917
internal_weight=0 44755 40304 67421 60678 17289 37897 23015 4451 6743 1935 22781 5136 3154 2516 12153 17838 27124 3589 5177 10773 9799 4337 15483 662 1215 3796 8124 12982 2587
internal_count=112176 44755 40304 67421 60678 17289 37897 23015 4451 6743 1935 22781 5136 3154 2516 12153 17838 27124 3589 5177 10773 9799 4337 15483 662 1215 3796 8124 12982 2587
is_linear=0
shrinkage=0.05


Tree=8
num_leaves=31
num_cat=0
split_feature=20 38 20 3 38 3 20 38 3 20 3 3 16 20 12 20 3 20 20 20 20 20 28 20 20 3 20 3 20 28
split_gain=4.3321e+07 1.24289e+07 8.84542e+06 7.1292e+06 5.97826e+06 3.49894e+06 3.20614e+06 2.60718e+06 2.40269e+06 2.21862e+06 1.81415e+06 1.11044e+06 849663 826513 804582 736568 628944 625952 603834 468957 464061 419362 411869 373993 331668 294178 291495 290819 287470 226608
threshold=127.53571428571429 1.0000000180025095e-35 94.178571428571445 3.5000000000000004 1.0000000180025095e-35 3.5000000000000004 178.89285714285717 1.0000000180025095e-35 4.5000000000000009 174.53571428571431 4.5000000000000009 3.5000000000000004 185.50000000000003 74.964285714285737 138.50000000000003 178.89285714285717 3.5000000000000004 74.464285714285737 110.10714285714286 149.39285714285717 216.46428571428575 112.60714285714286 21.500000000000004 151.17857142857147 224.17857142857147 4.5000000000000009 144.60714285714289 4.5000000000000009 77.535714285714292 2.5000000000000004
decision_type=2 2 2 2 2 2 2 2 2 2 2 2 2 2 2 2 2 2 2 2 2 2 2 2 2 2 2 2 2 2
left_child=2 3 7 9 5 21 14 10 12 19 13 -6 26 -1 -5 -10 -9 -12 -7 29 27 -4 -11 -16 -24 -20 -3 -8 -18 -2
right_child=1 8 4 6 11 18 20 16 15 22 17 -13 -14 -15 23 -17 28 -19 25 -21 -22 -23 24 -25 -26 -27 -28 -29 -30 -31
leaf_value=-1.9878859352778127 -1.4440598619348688 2.2529657913544905 -1.0037097506100203 1.0356659933645509 0.98046182938943682 -0.098145041692371607 2.312757984605522 -0.5512621470888589 5.4321536871787668 0.17669157530206023 -1.3193445329750826 2.7169756466467505 5.3466741898342374 -1.3853769664778155 1.5326550376262247 8.7160163561352508 0.05866317975683169 -0.48055120259246409 0.085818454520689688 0.49156316154907187 4.7592179257853138 -0.53138782632650494 1.465909338454938 2.2533074567444364 2.8599881526508093 0.77280465082477123 3.4058188303125547 3.5353894005750686 1.4229310338295957 -0.025200641129818874
leaf_weight=9614 291 983 11665 4557 2145 7689 729 2127 903 542 3648 1613 421 13957 3689 211 737 5699 2339 6371 546 7871 3174 3519 493 4669 1243 1467 811 8453
leaf_count=9614 291 983 11665 4557 2145 7689 729 2127 903 542 3648 1613 421 13957 3689 211 737 5699 2339 6371 546 7871 3174 3519 493 4669 1243 1467 811 8453
internal_value=0 1.38004 -0.70156 1.0769 -0.167161 -0.374976 1.91461 -1.25637 4.10675 0.448011 -1.39739 1.72586 3.28668 -1.63113 1.55573 6.05487 0.00674547 -0.807931 0.207823 0.165292 3.45429 -0.813417 1.46326 1.88451 1.65341 0.54352 2.89685 3.12964 0.773455 -0.0724368
internal_weight=0 37592 74584 33831 37991 34233 14507 36593 3761 19324 32918 3758 2647 23571 11765 1114 3675 9347 14697 15115 2742 19536 4209 7208 3667 7008 2226 2196 1548 8744
internal_count=112176 37592 74584 33831 37991 34233 14507 36593 3761 19324 32918 3758 2647 23571 11765 1114 3675 9347 14697 15115 2742 19536 4209 7208 3667 7008 2226 2196 1548 8744
is_linear=0
shrinkage=0.05


Tree=9
num_leaves=31
num_cat=0
split_feature=20 40 20 24 40 3 3 3 3 16 16 16 20 20 40 20 20 20 28 28 1 24 23 16 23 10 27 28 27 20
split_gain=3.91905e+07 1.05394e+07 7.61151e+06 5.40558e+06 3.86927e+06 3.69205e+06 2.67853e+06 2.41135e+06 1.0738e+06 985315 900763 821830 733868 682057 671525 517653 455577 334960 315103 310648 291020 287270 277692 255186 251442 229852 229106 202716 200235 178411
threshold=116.75000000000001 1.0000000180025095e-35 161.25000000000003 83.375000000000014 1.0000000180025095e-35 3.5000000000000004 3.5000000000000004 3.5000000000000004 3.5000000000000004 201.35714285714289 164.78571428571431 134.78571428571431 203.03571428571431 135.53571428571431 1.0000000180025095e-35 103.53571428571429 99.892857142857167 64.392857142857153 2.5000000000000004 1.5000000000000002 5.5000000000000009 66.410714285714292 121.50000000000001 227.35714285714289 156.50000000000003 1.0200000000000002 85.500000000000014 1.5000000000000002 93.500000000000014 178.89285714285717
decision_type=2 2 2 2 2 2 2 2 2 2 2 2 2 2 2 2 2 2 2 2 2 2 2 2 2 2 2 2 2 2
left_child=3 2 5 8 7 13 12 16 21 22 26 27 19 -2 17 -9 -5 -10 -15 -4 -14 -1 -8 -12 -11 -20 -3 -7 -13 -21
right_child=1 10 6 4 -6 11 9 15 14 24 23 28 20 18 -16 -17 -18 -19 25 29 -22 -23 -24 -25 -26 -27 -28 -29 -30 -31
leaf_value=-2.0432162003866838 -0.17359533117559611 3.8784131703076015 -0.86939603575742486 -1.0932148392813961 2.3491825050614277 -0.76874108359340565 2.1635870943991033 -0.30496839455308078 -1.6081833033052737 3.6447520574492915 6.973990977567853 1.3398960754003353 0.10166832383555001 -1.0959149927237812 0.54075187636718491 0.27808805845287687 -0.65171587468214409 -0.94718832014315169 2.4719394144077627 0.96264645163200102 2.6084284429447426 -1.5543547844511176 3.0412101031454335 11.168813021397648 5.2663687304681783 0.4318800636117584 5.3713230559841261 0.82417919231686776 1.8809065033827281 1.522721990445739
leaf_weight=4694 10039 556 188 12271 1179 206 2691 10490 2740 954 332 4579 127 336 631 5975 11156 6381 140 3428 1312 8362 1357 41 320 9565 481 6482 2732 2431
leaf_count=4694 10039 556 188 12271 1179 206 2691 10490 2740 954 332 4579 127 336 631 5975 11156 6381 140 3428 1312 8362 1357 41 320 9565 481 6482 2732 2431
internal_value=0 1.07102 0.942931 -0.816407 -0.473646 0.552378 1.98209 -0.55708 -1.43362 2.83965 5.33015 1.17567 1.37239 0.117839 -1.03664 -0.0933818 -0.882976 -1.14577 0.409214 1.13086 2.38722 -1.73013 2.45786 7.43797 4.05245 0.461335 4.57134 0.775103 1.54209 1.19505
internal_weight=0 48297 46887 63879 41071 34079 12808 39892 22808 5322 1410 13999 7486 20080 9752 16465 23427 9121 10041 6047 1439 13056 4048 373 1274 9705 1037 6688 7311 5859
internal_count=112176 48297 46887 63879 41071 34079 12808 39892 22808 5322 1410 13999 7486 20080 9752 16465 23427 9121 10041 6047 1439 13056 4048 373 1274 9705 1037 6688 7311 5859
is_linear=0
shrinkage=0.05


Tree=10
num_leaves=31
num_cat=0
split_feature=20 11 3 11 13 20 16 3 3 16 16 24 20 16 23 3 20 27 24 16 20 3 3 3 3 3 27 28 20 1
split_gain=3.58926e+07 1.25702e+07 6.99805e+06 5.65864e+06 3.91931e+06 3.46467e+06 2.88104e+06 2.1895e+06 1.49243e+06 1.2302e+06 1.12534e+06 902181 804486 790918 775998 767761 690009 570254 411320 376882 353740 311344 290646 283889 274355 273608 243781 212417 206033 205993
threshold=116.75000000000001 1.0000000180025095e-35 4.5000000000000009 1.0000000180025095e-35 83.500000000000014 158.32142857142858 177.50000000000003 3.5000000000000004 4.5000000000000009 84.785714285714292 161.6428571428572 81.017857142857153 91.678571428571445 142.92857142857147 132.50000000000003 4.5000000000000009 170.75000000000003 86.500000000000014 94.375000000000014 221.35714285714289 224.17857142857147 3.5000000000000004 3.5000000000000004 3.5000000000000004 3.5000000000000004 3.5000000000000004 86.500000000000014 2.5000000000000004 143.46428571428575 9.5000000000000018
decision_type=2 2 2 2 2 2 2 2 2 2 2 2 2 2 2 2 2 2 2 2 2 2 2 2 2 2 2 2 2 2
left_child=3 2 5 4 11 17 13 16 18 23 26 21 -10 -4 22 -11 28 25 -6 -12 -8 -1 27 -5 -19 -2 -9 -7 -3 -16
right_child=1 7 6 9 8 14 20 10 12 15 19 -13 -14 -15 29 -17 -18 24 -20 -21 -22 -23 -24 -25 -26 -27 -28 -29 -30 -31
leaf_value=-1.7916515124115051 -0.30890610720491218 1.7445744770409957 1.0520664188068141 -0.67610533301881071 -1.2225875978916632 -0.38946712297781283 3.2205084895916487 3.4028261237770416 -0.61216298305424266 0.74804988869224087 6.0308455232996234 -1.0575682681339007 0.19330933818607329 1.9331837522456832 1.3489106472233514 2.3059060781649157 4.1513628749905749 0.18897233946663794 -0.68127705005672834 9.9411775956310322 5.1527352462498568 -1.3056596835881036 1.5334349481024061 0.38783800055639706 0.91034057394783341 0.25409509323522445 4.7051804582591936 0.83487541734023751 2.7231265362471579 2.3894158748619621
leaf_weight=9726 10670 1351 6024 1456 5023 378 1762 899 5162 2751 529 13201 7760 4413 749 1110 523 6443 11648 70 274 4987 1512 1101 1657 2705 601 5627 895 1306
leaf_count=9726 10670 1351 6024 1456 5023 378 1762 899 5162 2751 529 13201 7760 4413 749 1110 523 6443 11648 70 274 4987 1512 1101 1657 2705 601 5627 895 1306
internal_value=0 1.02951 0.75998 -0.775512 -0.932668 0.358103 1.76029 3.43907 -0.53177 0.632636 4.65703 -1.35768 -0.128458 1.42464 1.14924 1.19597 2.51567 0.00546641 -0.844381 6.4894 3.48079 -1.62693 0.913833 -0.217991 0.336551 -0.195042 3.92492 0.7578 2.13462 2.01026
internal_weight=0 48388 43520 63925 57507 31047 12473 4868 29593 6418 2099 27914 12922 10437 9572 3861 2769 21475 16671 599 2036 14713 7517 2557 8100 13375 1500 6005 2246 2055
internal_count=112313 48388 43520 63925 57507 31047 12473 4868 29593 6418 2099 27914 12922 10437 9572 3861 2769 21475 16671 599 2036 14713 7517 2557 8100 13375 1500 6005 2246 2055
is_linear=0
shrinkage=0.05


Tree=11
num_leaves=31
num_cat=0
split_feature=16 11 11 3 16 3 20 16 3 16 3 20 3 23 24 19 24 1 20 3 20 16 3 23 35 24 16 16 24 3
split_gain=3.24377e+07 1.0091e+07 6.18561e+06 5.75614e+06 4.75395e+06 2.78116e+06 2.47051e+06 2.14424e+06 1.89828e+06 1.5703e+06 1.03159e+06 815535 645933 597809 542962 535555 494868 485512 437914 429250 365347 351176 334293 330314 292833 261739 231369 225323 224259 216485
threshold=124.21428571428572 1.0000000180025095e-35 1.0000000180025095e-35 4.5000000000000009 88.642857142857153 4.5000000000000009 169.60714285714289 177.50000000000003 3.5000000000000004 95.500000000000014 4.5000000000000009 175.96428571428575 4.5000000000000009 93.500000000000014 104.9464285714286 121.50000000000001 139.48214285714289 10.500000000000002 67.964285714285737 3.5000000000000004 109.25000000000001 71.357142857142875 3.5000000000000004 155.50000000000003 -0.5 140.69642857142858 216.92857142857147 221.35714285714289 67.125000000000014 3.5000000000000004
decision_type=2 2 2 2 2 2 2 2 2 2 2 2 2 2 2 2 2 2 2 2 2 2 2 2 2 2 2 2 2 2
left_child=2 3 4 6 10 14 13 16 15 19 18 25 -11 -2 -6 -3 -5 24 -1 -4 -7 -12 -15 -9 -8 -10 -19 -13 -21 -16
right_child=1 8 9 7 5 20 17 23 11 12 21 27 -14 22 29 -17 -18 26 -20 28 -22 -23 -24 -25 -26 -27 -28 -29 -30 -31
leaf_value=-1.8527094923582448 -0.07953696685248457 2.117612526655142 -0.38834115103370986 1.0601391133497322 -0.92944251614351669 0.021147797151016279 1.2386902449205879 3.0791413302120034 3.4501582882426129 1.112643398024189 -1.2150038724445427 6.2448213266905244 2.6608643767459856 0.32027800717279042 -0.57814980480528344 3.891777312654833 1.8319542217926372 1.5200090980719647 -1.3361475810144221 -0.38758073298814805 0.6219281022476506 -0.5312850404645737 1.0366881424529237 5.091987600620806 0.23687234814855684 4.8013561938005331 2.54006145437075 9.4448279180812431 0.9963167782428034 -0.074649243751185174
leaf_weight=5886 10006 1813 2194 3648 13208 6529 2862 1806 667 2341 3178 266 946 7931 10527 556 4824 1539 13552 380 4132 4592 2049 230 979 779 871 70 1274 2678
leaf_count=5886 10006 1813 2194 3648 13208 6529 2862 1806 667 2341 3178 266 946 7931 10527 556 4824 1539 13552 380 4132 4592 2049 230 979 779 871 70 1274 2678
internal_value=0 1.12494 -0.640968 0.860953 -0.795997 -0.42764 0.464909 1.84981 3.4617 0.75574 -1.29792 4.69456 1.55829 0.193564 -0.70277 2.53415 1.49963 1.33245 -1.49258 0.0701693 0.254003 -0.810945 0.467374 3.30677 0.983359 4.17837 1.88876 6.91412 0.678365 -0.476041
internal_weight=0 40896 71417 36745 64282 37074 26237 10508 4151 7135 27208 1782 3287 19986 26413 2369 8472 6251 19438 3848 10661 7770 9980 2036 3841 1446 2410 336 1654 13205
internal_count=112313 40896 71417 36745 64282 37074 26237 10508 4151 7135 27208 1782 3287 19986 26413 2369 8472 6251 19438 3848 10661 7770 9980 2036 3841 1446 2410 336 1654 13205
is_linear=0
shrinkage=0.05


Tree=12
num_leaves=31
num_cat=0
split_feature=20 11 3 11 20 20 16 3 3 24 16 19 3 3 19 20 19 20 20 16 3 20 20 1 28 3 3 20 28 3
split_gain=2.93437e+07 1.02719e+07 5.69748e+06 4.58985e+06 3.24027e+06 2.84368e+06 2.37154e+06 2.30377e+06 1.78819e+06 1.045e+06 924100 656809 650051 622403 580850 554145 492674 408798 375038 347288 326221 251443 251023 246206 238061 224756 219425 219030 217590 204535
threshold=116.75000000000001 1.0000000180025095e-35 4.5000000000000009 1.0000000180025095e-35 83.107142857142875 158.32142857142858 171.07142857142858 4.5000000000000009 3.5000000000000004 82.910714285714292 155.21428571428575 138.50000000000003 4.5000000000000009 3.5000000000000004 113.50000000000001 134.96428571428575 92.500000000000014 200.17857142857147 98.464285714285737 221.35714285714289 3.5000000000000004 64.392857142857153 103.53571428571429 10.500000000000002 1.5000000000000002 3.5000000000000004 3.5000000000000004 211.32142857142861 2.5000000000000004 3.5000000000000004
decision_type=2 2 2 2 2 2 2 2 2 2 2 2 2 2 2 2 2 2 2 2 2 2 2 2 2 2 2 2 2 2
left_child=3 2 5 4 13 16 15 18 14 29 -10 24 -11 -1 -3 -4 28 -8 -6 -12 -18 -15 -9 -13 -7 -26 -20 -16 -2 -5
right_child=1 8 6 9 7 11 17 22 10 12 19 23 -14 21 27 -17 20 -19 26 -21 -22 -23 -24 -25 25 -27 -28 -29 -30 -31
leaf_value=-1.5824019895912222 -1.2238137017080393 1.8135820448719884 0.82699746077433522 -0.72043304947791875 -1.0106187082145184 -0.59922802122756558 2.5382862396633668 -0.12434024849736776 3.4269779131706706 0.6392808032150511 5.2702089424708047 1.1465737547730355 2.0192890984383016 -1.4316561949570143 3.0929179746643141 1.5781588008237839 0.086309650149536787 3.9247792432948629 -0.73302027466054698 8.9732602553428844 0.73417626983387008 -0.8508027966908559 0.38110592724040504 2.1161805549789467 0.6991491919893803 1.4283214499391521 -0.23672181003451939 5.5652073640943618 -0.20442318521362238 0.24663227211147071
leaf_weight=11796 556 1971 4465 1277 12518 298 1796 6671 1349 2991 680 1137 1194 2675 695 5456 9554 756 11026 70 2439 6142 3888 1545 5270 1322 2791 103 8926 956
leaf_count=11796 556 1971 4465 1277 12518 298 1796 6671 1349 2991 680 1137 1194 2675 695 5456 9554 756 11026 70 2439 6142 3888 1545 5270 1322 2791 103 8926 956
internal_value=0 0.930864 0.687215 -0.701202 -0.84274 0.324601 1.5898 -0.562199 3.10903 0.567011 4.20973 1.04134 1.03304 -1.34486 2.27454 1.24011 0.00512551 2.94916 -0.81238 5.61698 0.218071 -1.02704 0.0617748 1.70519 0.782912 0.845402 -0.632772 3.41269 -0.26421 -0.306415
internal_weight=0 48388 43520 63925 57507 31047 12473 36894 4868 6418 2099 9572 4185 20613 2769 9921 21475 2552 26335 750 11993 8817 10559 2682 6890 6592 13817 798 9482 2233
internal_count=112313 48388 43520 63925 57507 31047 12473 36894 4868 6418 2099 9572 4185 20613 2769 9921 21475 2552 26335 750 11993 8817 10559 2682 6890 6592 13817 798 9482 2233
is_linear=0
shrinkage=0.05


Tree=13
num_leaves=31
num_cat=0
split_feature=19 11 3 11 14 24 24 3 3 15 16 19 16 20 20 1 20 3 16 16 24 20 20 1 3 19 3 3 35 16
split_gain=2.66358e+07 8.82483e+06 4.82441e+06 4.6293e+06 3.43865e+06 2.49728e+06 1.73204e+06 1.51682e+06 1.21824e+06 1.11009e+06 819624 719431 706258 674631 621476 507968 426411 393928 379900 312709 281970 259801 254243 243764 228949 224653 224195 217888 201030 199877
threshold=84.500000000000014 1.0000000180025095e-35 3.5000000000000004 1.0000000180025095e-35 86.500000000000014 157.08928571428575 154.94642857142858 4.5000000000000009 4.5000000000000009 81.500000000000014 79.071428571428584 134.50000000000003 94.642857142857153 148.75000000000003 159.75000000000003 10.500000000000002 132.82142857142858 4.5000000000000009 101.50000000000001 221.35714285714289 132.76785714285717 70.464285714285737 101.67857142857144 10.500000000000002 4.5000000000000009 159.50000000000003 3.5000000000000004 4.5000000000000009 -0.24999999999999994 204.07142857142861
decision_type=2 2 2 2 2 2 2 2 2 2 2 2 2 2 2 2 2 2 2 2 2 2 2 2 2 2 2 2 2 2
left_child=3 2 6 4 10 16 20 13 18 21 26 27 -10 -3 -9 28 -4 -11 -6 -15 -2 -5 -19 -13 -18 -16 -1 -7 -8 -17
right_child=1 7 5 9 8 11 15 14 12 17 -12 23 -14 19 25 29 24 22 -20 -21 -22 -23 -24 -25 -26 -27 -28 -29 -30 -31
leaf_value=-1.563875775606498 -0.31710540028411943 1.7862021849772252 0.58576334413182884 -0.79986768328613556 -0.91942595857691678 1.2710084537135926 0.79426779482643894 3.7777509809865109 -0.43495241519055994 0.75341970873957498 -0.89524199740441857 2.365115741686564 0.29575494695765275 3.0500440651003538 5.6946656139877128 1.0292318939349887 0.77735728511694935 1.2708933937883133 -0.4503512296610257 5.858415718684121 0.1249186871122947 0.20478703898281692 2.5807878938377193 3.4882845665295648 1.4140980695978138 9.2885548848591863 -1.1448588475331725 2.0693652889279277 0.19043662070146933 1.9967419771418169
leaf_weight=9107 7016 1676 5158 966 7875 1293 3990 911 5941 2380 16254 885 7458 1356 347 1146 2134 964 9553 107 7427 1927 602 1067 4174 50 4918 2525 2106 1000
leaf_count=9107 7016 1676 5158 966 7875 1293 3990 911 5941 2380 16254 885 7458 1356 347 1146 2134 964 9553 107 7427 1927 602 1067 4174 50 4918 2525 2106 1000
internal_value=0 0.954712 0.719354 -0.620371 -0.758442 1.34993 0.240236 3.06747 -0.38671 0.613279 -1.1369 2.19834 -0.0282348 2.47124 4.49805 0.818583 0.92298 1.15871 -0.662311 3.25583 -0.0898044 -0.130691 1.77458 2.97921 1.1987 6.14953 -1.41695 1.79904 0.585668 1.48015
internal_weight=0 44368 39921 67945 61106 17236 22685 4447 30827 6839 30279 5770 13399 3139 1308 8242 11466 3946 17428 1463 14443 2893 1566 1952 6308 397 14025 3818 6096 2146
internal_count=112313 44368 39921 67945 61106 17236 22685 4447 30827 6839 30279 5770 13399 3139 1308 8242 11466 3946 17428 1463 14443 2893 1566 1952 6308 397 14025 3818 6096 2146
is_linear=0
shrinkage=0.05


Tree=14
num_leaves=31
num_cat=0
split_feature=16 38 3 38 13 23 20 3 3 15 16 24 20 24 16 16 24 12 24 23 16 1 1 3 3 20 20 1 24 20
split_gain=2.41206e+07 8.43024e+06 4.82892e+06 3.62434e+06 2.63923e+06 2.44045e+06 1.98985e+06 1.56859e+06 1.03831e+06 873209 774242 634577 577138 559755 517839 495359 439689 289785 276366 264339 249056 230328 220542 218001 216979 214929 212727 199114 196287 183857
threshold=116.07142857142858 1.0000000180025095e-35 4.5000000000000009 1.0000000180025095e-35 79.500000000000014 104.50000000000001 175.96428571428575 3.5000000000000004 3.5000000000000004 81.500000000000014 161.6428571428572 94.017857142857153 183.67857142857147 139.48214285714289 150.35714285714286 69.500000000000014 134.83928571428575 80.500000000000014 97.625000000000014 156.50000000000003 221.35714285714289 1.5000000000000002 5.5000000000000009 3.5000000000000004 3.5000000000000004 211.32142857142861 69.321428571428598 10.500000000000002 140.12500000000003 79.964285714285737
decision_type=2 2 2 2 2 2 2 2 2 2 2 2 2 2 2 2 2 2 2 2 2 2 2 2 2 2 2 2 2 2
left_child=3 2 5 4 15 16 13 14 18 26 28 29 -7 -4 -3 -1 27 -11 -6 -8 -12 -18 -14 -19 -23 -16 -5 -2 -9 -10
right_child=1 7 6 9 8 12 19 10 11 17 20 -13 22 -15 25 -17 21 23 -20 -21 -22 24 -24 -25 -26 -27 -28 -29 -30 -31
leaf_value=-1.4750556687363208 -0.30591712155015605 1.4703348351689569 0.82704796273277159 -0.80018391206368933 -1.0899765973871307 0.64432369304102133 2.6810088798446428 2.7696133362398592 -0.85530027098646544 0.30661212260238901 4.9617351311610838 0.028152920278589399 0.091484705899515906 1.5538720574773439 2.6292509886417434 -1.0008802898233629 -0.4663737114546031 0.74203612888403314 -0.62798281281291546 4.5259525327494474 8.1406975652283844 0.19108767685736072 1.553059528533099 1.7001688125565335 0.81160422622073547 5.0162484718101972 0.13308045677354102 0.26979268591813621 3.9383349315500782 -0.37613277114866017
leaf_weight=8415 10104 1721 5693 888 5337 6313 1789 949 3184 1003 529 10304 280 4955 1019 15948 1053 994 8229 218 70 6980 3303 1475 1765 104 1954 1764 580 5393
leaf_count=8415 10104 1721 5693 888 5337 6313 1789 949 3184 1003 529 10304 280 4955 1019 15948 1053 994 8229 218 70 6980 3303 1475 1765 104 1954 1764 580 5393
internal_value=0 0.831823 0.612324 -0.645065 -0.771372 0.281458 1.43751 2.78383 -0.476063 0.49137 3.81054 -0.23631 0.932006 1.16528 2.01549 -1.16467 -0.0156849 1.02334 -0.809743 2.88162 5.33454 0.232212 1.43885 1.31448 0.316335 2.85074 -0.15854 -0.220345 3.21318 -0.55402
internal_weight=0 49189 44217 63124 56810 31562 12655 4972 32447 6314 2128 18881 9896 10648 2844 24363 21666 3472 13566 2007 599 9798 3583 2469 8745 1123 2842 11868 1529 8577
internal_count=112313 49189 44217 63124 56810 31562 12655 4972 32447 6314 2128 18881 9896 10648 2844 24363 21666 3472 13566 2007 599 9798 3583 2469 8745 1123 2842 11868 1529 8577
is_linear=0
shrinkage=0.05


Tree=15
num_leaves=31
num_cat=0
split_feature=24 11 3 16 11 19 36 20 3 11 3 23 3 23 16 24 23 28 1 16 24 3 24 3 28 20 24 3 1 20
split_gain=2.17812e+07 6.99027e+06 3.95104e+06 3.86442e+06 2.88241e+06 1.8439e+06 1.76842e+06 1.55893e+06 1.27387e+06 1.12092e+06 873772 588924 488367 474497 404626 383177 337846 335680 331172 297878 275745 263106 258972 218732 196104 189663 186238 181370 171845 169432
threshold=122.48214285714288 1.0000000180025095e-35 4.5000000000000009 90.785714285714306 1.0000000180025095e-35 124.50000000000001 -1.0000000180025095e-35 173.17857142857147 3.5000000000000004 1.0000000180025095e-35 4.5000000000000009 115.50000000000001 3.5000000000000004 94.500000000000014 186.78571428571431 69.232142857142875 97.500000000000014 2.5000000000000004 10.500000000000002 227.35714285714289 76.517857142857153 4.5000000000000009 105.6964285714286 3.5000000000000004 2.5000000000000004 142.82142857142858 104.16071428571431 3.5000000000000004 5.5000000000000009 67.250000000000014
decision_type=2 2 2 2 2 2 2 2 2 2 2 2 2 2 2 2 2 2 2 2 2 2 2 2 2 2 2 2 2 2
left_child=3 2 5 9 6 13 22 16 14 10 15 25 -6 17 -3 -1 24 -2 -7 28 -12 29 -5 -15 -4 -10 -8 -19 -9 -11
right_child=1 8 7 4 12 18 26 19 11 21 20 -13 -14 23 -16 -17 -18 27 -20 -21 -22 -23 -24 -25 -26 -27 -28 -29 -30 -31
leaf_value=-1.5265799986434327 -1.0437120903192487 1.8257292760844406 -0.24323722390503977 -0.12452198052861237 0.63008387860301696 0.85302559539710132 -0.81866564150992061 1.1228652989844536 2.7966643898281216 -1.0204014531124304 -0.89860163015713701 5.6247948244007047 1.7815627653894854 0.28246038425364955 3.735239177676001 -1.0630855271729605 1.5697311297839427 -0.10182342503645798 1.6389154174434772 4.1727090637013706 -0.32729594922089938 0.64494426017845063 0.298933929571082 0.86884728330190097 1.0122612526821608 3.9461816268887464 -0.50546926262665859 0.42052475555379065 2.6138092870371299 -0.080716569100925284
leaf_weight=6409 828 2088 332 7492 2155 3324 9022 218 709 665 4075 367 1608 8097 320 14664 3453 8344 2247 287 4385 940 6969 1979 4913 730 10018 2075 1719 1721
leaf_count=6409 828 2088 332 7492 2155 3324 9022 218 709 665 4075 367 1608 8097 320 14664 3453 8344 2247 287 4385 940 6969 1979 4913 730 10018 2075 1719 1721
internal_value=0 0.901023 0.685766 -0.538458 -0.189907 0.360068 -0.337289 1.48774 2.83265 -0.933733 -1.03173 3.8365 1.12217 0.148447 2.07963 -1.20406 1.18566 -0.0748008 1.17003 2.66908 -0.60249 -0.0635213 0.0795489 0.397639 0.932786 3.38005 -0.653879 0.00220759 2.44608 -0.342649
internal_weight=0 42030 37816 70123 37264 26894 33501 10922 4214 32859 29533 1806 3763 21323 2408 21073 8698 11247 5571 2224 8460 3326 14461 10076 5245 1439 19040 10419 1937 2386
internal_count=112153 42030 37816 70123 37264 26894 33501 10922 4214 32859 29533 1806 3763 21323 2408 21073 8698 11247 5571 2224 8460 3326 14461 10076 5245 1439 19040 10419 1937 2386
is_linear=0
shrinkage=0.05


Tree=16
num_leaves=31
num_cat=0
split_feature=23 11 16 3 11 19 3 16 13 11 3 12 3 24 12 16 19 1 28 24 27 24 27 16 3 1 28 3 28 3
split_gain=1.97325e+07 6.35782e+06 3.55809e+06 3.53938e+06 2.62294e+06 1.82896e+06 1.62872e+06 1.17876e+06 1.14683e+06 1.01219e+06 797854 466935 412979 403158 385683 352339 342848 289579 300737 256537 247931 247292 215618 205626 200462 197163 195195 185701 154875 137624
threshold=80.500000000000014 1.0000000180025095e-35 90.785714285714306 3.5000000000000004 1.0000000180025095e-35 125.50000000000001 4.5000000000000009 181.35714285714289 150.50000000000003 1.0000000180025095e-35 3.5000000000000004 127.50000000000001 3.5000000000000004 141.33928571428575 142.50000000000003 71.357142857142875 164.50000000000003 10.500000000000002 45.500000000000007 75.517857142857153 99.500000000000014 67.125000000000014 67.500000000000014 111.35714285714288 3.5000000000000004 10.500000000000002 44.500000000000007 3.5000000000000004 1.5000000000000002 3.5000000000000004
decision_type=2 2 2 2 2 2 2 2 2 2 2 2 2 2 2 2 2 2 2 2 2 2 2 2 2 2 2 2 2 2
left_child=2 3 9 7 6 11 17 13 27 10 19 -5 -6 -2 -10 -12 -7 22 -19 -1 -13 -11 -4 -8 -23 29 -9 -3 -15 -16
right_child=1 8 4 5 12 16 23 26 14 21 15 20 -14 28 25 -17 -18 18 -20 -21 -22 24 -24 -25 -26 -27 -28 -29 -30 -31
leaf_value=-1.4166464587478074 -0.18400136638195785 1.7271342617637857 -0.70960543962400702 0.53408157836624848 0.62150368129269074 2.0855908107589953 0.052739387861950954 0.73134844562733348 2.616843257577441 -0.75730773477561886 -1.021776222286048 1.0019628131071783 1.6726873460823635 -1.1460708010821703 2.5808296918276232 -0.47513776184079992 3.6523982482844639 0.83226746391130524 -0.42346441600888557 -1.0264829667903117 1.6085483634987789 -0.18597363872927189 -0.38546724178657177 0.52817214361217424 0.73685962101019076 5.0672474389040012 1.478795790518068 2.764936520221279 0.32247470355634883 4.0885770741502219
leaf_weight=7727 8313 1736 13900 4422 2223 2854 6129 1923 596 922 4700 6162 1612 183 201 7908 398 745 1324 9269 2319 1387 8133 3616 1022 408 1601 574 9224 622
leaf_count=7727 8313 1736 13900 4422 2223 2854 6129 1923 596 922 4700 6162 1612 183 201 7908 398 745 1324 9269 2319 1387 8133 3616 1022 408 1601 574 9224 622
internal_value=0 0.865712 -0.507696 0.659965 -0.175888 1.21775 -0.316306 0.235794 2.72563 -0.887326 -0.980305 0.950652 1.06339 0.0696983 3.66174 -0.67892 2.27745 -0.53685 0.0287121 -1.20387 1.16784 -0.0609808 -0.589959 0.229159 0.205544 4.16738 1.07096 1.98512 0.293894 3.72071
internal_weight=0 41536 70617 37399 37682 16155 33847 21244 4137 32935 29604 12903 3835 17720 1827 12608 3252 24102 2069 16996 8481 3331 22033 9745 2409 1231 3524 2310 9407 823
internal_count=112153 41536 70617 37399 37682 16155 33847 21244 4137 32935 29604 12903 3835 17720 1827 12608 3252 24102 2069 16996 8481 3331 22033 9745 2409 1231 3524 2310 9407 823
is_linear=0
shrinkage=0.05


Tree=17
num_leaves=31
num_cat=0
split_feature=16 11 20 3 11 3 19 11 23 3 3 3 16 20 20 27 12 20 27 3 16 1 20 3 20 20 19 28 20 28
split_gain=1.79169e+07 5.20632e+06 4.05671e+06 2.93216e+06 2.82324e+06 1.72615e+06 1.18292e+06 1.03325e+06 1.0328e+06 983770 818200 449019 365191 341456 331652 325525 311024 264075 252785 251888 251155 215767 204447 175123 158226 138051 133798 129173 142564 128596
threshold=130.6428571428572 1.0000000180025095e-35 93.464285714285737 4.5000000000000009 1.0000000180025095e-35 3.5000000000000004 128.50000000000003 1.0000000180025095e-35 120.50000000000001 4.5000000000000009 4.5000000000000009 4.5000000000000009 68.071428571428584 186.82142857142861 185.32142857142861 96.500000000000014 106.50000000000001 77.535714285714292 69.500000000000014 3.5000000000000004 155.92857142857147 10.500000000000002 224.17857142857147 3.5000000000000004 106.89285714285717 113.46428571428574 46.500000000000007 2.5000000000000004 144.60714285714289 2.5000000000000004
decision_type=2 2 2 2 2 2 2 2 2 2 2 2 2 2 2 2 2 2 2 2 2 2 2 2 2 2 2 2 2 2
left_child=2 3 7 6 5 18 15 10 20 13 12 24 -1 27 -11 23 -7 -12 -4 -9 -5 -8 -10 29 -6 -18 -21 -3 -29 -2
right_child=1 9 4 8 11 16 21 19 22 14 17 -13 -14 -15 -16 -17 25 -19 -20 26 -22 -23 -24 -25 -26 -27 -28 28 -30 -31
leaf_value=-1.3923349345585785 -1.0861984249763672 -0.36604310276733809 -0.66807674347075041 1.0218292179550457 0.38868780804571212 -0.090111700353125809 0.83790177043051273 -0.37487283081005618 2.3813304108243729 3.6902817534045789 -0.78445863610787825 1.974823543892255 -0.94341548549165921 3.6211043963232195 6.2019141438025045 0.52978250805694815 0.15424660379110025 -0.24751343657237024 -0.31918886583623873 -0.24348893276190664 1.6268323491964782 1.5299097752908866 3.9016848942278366 0.47698867883475282 1.1307003319453384 0.54065732242991216 0.76850879353803569 1.5260102944177483 2.3820157405935851 0.019377599601433038
leaf_weight=6223 271 57 12288 4701 1231 6843 2512 2109 1398 873 4424 1182 16662 374 155 6425 4462 4747 8991 467 2702 2043 263 2274 1726 4796 1086 801 1242 8825
leaf_count=6223 271 57 12288 4701 1231 6843 2512 2109 1398 873 4424 1182 16662 374 155 6425 4462 4747 8991 467 2702 2043 263 2274 1726 4796 1086 801 1242 8825
internal_value=0 0.940832 -0.424007 0.736972 -0.0879093 -0.225109 0.429342 -0.814689 1.49551 2.76944 -0.905582 1.15114 -1.06549 2.22907 4.06955 0.245302 0.165496 -0.506537 -0.520664 -0.019033 1.24267 1.14831 2.62228 0.0845429 0.821826 0.354426 0.464193 1.98099 2.04649 -0.0135722
internal_weight=0 34916 77237 31414 41519 37380 22350 35718 9064 3502 32056 4139 22885 2474 1028 17795 16101 9171 21279 3662 7403 4555 1661 11370 2957 9258 1553 2100 2043 9096
internal_count=112153 34916 77237 31414 41519 37380 22350 35718 9064 3502 32056 4139 22885 2474 1028 17795 16101 9171 21279 3662 7403 4555 1661 11370 2957 9258 1553 2100 2043 9096
is_linear=0
shrinkage=0.05


Tree=18
num_leaves=31
num_cat=0
split_feature=20 38 24 3 38 36 19 20 3 3 38 3 38 23 24 28 24 12 16 20 24 16 27 28 24 3 1 24 28 1
split_gain=1.62167e+07 4.88829e+06 3.56315e+06 2.74054e+06 2.36319e+06 1.51681e+06 1.12878e+06 980911 953892 893837 581927 417391 385453 376120 339822 283926 288416 258231 258221 239521 235365 231470 188435 173202 172056 147234 145278 130323 127231 123683
threshold=128.89285714285717 1.0000000180025095e-35 93.660714285714306 4.5000000000000009 1.0000000180025095e-35 -1.0000000180025095e-35 125.50000000000001 173.17857142857147 3.5000000000000004 3.5000000000000004 1.0000000180025095e-35 3.5000000000000004 1.0000000180025095e-35 115.50000000000001 67.125000000000014 2.5000000000000004 150.98214285714289 105.50000000000001 191.35714285714289 194.8928571428572 67.839285714285737 227.35714285714289 95.500000000000014 2.5000000000000004 108.4464285714286 3.5000000000000004 5.5000000000000009 197.12500000000006 1.5000000000000002 10.500000000000002
decision_type=2 2 2 2 2 2 2 2 2 2 2 2 2 2 2 2 2 2 2 2 2 2 2 2 2 2 2 2 2 2
left_child=2 3 8 6 5 17 15 22 12 18 14 -6 20 -11 -10 -2 25 -4 28 -8 -1 26 -5 -7 -25 -17 -9 -15 -3 -16
right_child=1 9 4 7 11 23 19 21 10 13 -12 -13 -14 27 29 16 -18 -19 -20 -21 -22 -23 -24 24 -26 -27 -28 -29 -30 -31
leaf_value=-1.3802690673264828 -0.68413372227872626 -0.86408055006761719 -0.086455143040140695 0.92901684706576304 0.62636472427645329 -1.4220251336350449 0.75865569389209941 0.90284783639652599 -1.0245008178041795 3.0801228016726694 0.43323387029611304 1.6594702589279102 -0.35724977258239804 4.2878897041969148 -0.48405015714419863 -0.010978455445688068 0.50703927567204987 0.32446646129128409 3.3426948035120407 1.4464176103195343 -0.96987186105632217 3.6414094173401668 1.4705282393152037 -0.62894928155825747 -0.33610186557300487 0.45622869185913872 2.2736008902164815 6.3514552815408738 1.7709027899282164 0.27990672080985018
leaf_weight=4698 873 47 6617 4714 2339 499 3293 218 3313 1213 1568 1680 2083 257 9803 8541 6351 9055 277 2057 13638 287 2438 9799 10276 2101 1719 110 1729 560
leaf_count=4698 873 47 6617 4714 2339 499 3293 218 3313 1213 1568 1680 2083 257 9803 8541 6351 9055 277 2057 13638 287 2438 9799 10276 2101 1719 110 1729 560
internal_value=0 0.871304 -0.41443 0.677379 -0.0920769 -0.219629 0.386004 1.39884 -0.778378 2.61095 -0.479092 1.05825 -1.00181 3.50498 -0.583696 0.195216 0.240396 0.150968 1.92277 1.02311 -1.07503 2.31596 1.11363 -0.501927 -0.479049 0.081263 2.11939 4.90797 1.70112 -0.442764
internal_weight=0 36225 75928 32592 40265 36246 23216 9376 35663 3633 15244 4019 20419 1580 13676 17866 16993 15672 2053 5350 18336 2224 7152 20574 20075 10642 1937 367 1776 10363
internal_count=112153 36225 75928 32592 40265 36246 23216 9376 35663 3633 15244 4019 20419 1580 13676 17866 16993 15672 2053 5350 18336 2224 7152 20574 20075 10642 1937 367 1776 10363
is_linear=0
shrinkage=0.05


Tree=19
num_leaves=31
num_cat=0
split_feature=19 11 13 20 11 3 13 14 3 23 3 24 3 12 3 23 3 11 19 11 20 16 14 12 1 20 20 19 20 3
split_gain=1.47484e+07 4.94373e+06 2.93329e+06 2.34573e+06 1.99142e+06 1.33259e+06 961287 927219 486289 473915 448130 417348 355207 344937 313403 250480 247700 217693 204993 192734 179346 178933 158109 149624 147814 147573 147189 139927 133949 128919
threshold=83.500000000000014 1.0000000180025095e-35 152.50000000000003 82.678571428571431 1.0000000180025095e-35 4.5000000000000009 150.50000000000003 170.50000000000003 3.5000000000000004 121.50000000000001 4.5000000000000009 140.12500000000003 4.5000000000000009 197.50000000000003 3.5000000000000004 69.500000000000014 3.5000000000000004 1.0000000180025095e-35 118.50000000000001 1.0000000180025095e-35 234.46428571428575 104.50000000000001 114.50000000000001 130.50000000000003 5.5000000000000009 63.678571428571438 106.89285714285717 134.50000000000003 135.53571428571431 4.5000000000000009
decision_type=2 2 2 2 2 2 2 2 2 2 2 2 2 2 2 2 2 2 2 2 2 2 2 2 2 2 2 2 2 2
left_child=3 2 8 10 5 15 22 16 11 29 17 -2 26 23 -11 -5 18 25 -4 -12 -16 -7 -3 -8 -15 -1 -6 -18 -10 -9
right_child=1 6 7 4 12 21 13 9 28 14 19 -13 -14 24 20 -17 27 -19 -20 -21 -22 -23 -24 -25 -26 -27 -28 -29 -30 -31
leaf_value=-1.3416105533150047 -0.19191508468577387 1.1831523177980507 0.025885411974421554 -0.66499827840541359 0.22165081575792533 -0.075940889009759857 1.9391137049915181 0.62066089312148076 0.37417482845137556 1.2293097210557158 -0.62692790162682133 0.29045320460465546 1.4597416203498086 2.2314907132600204 2.1152661582647183 -0.35124444016993417 0.8583528346529784 -0.48297161472743444 0.7521237793339659 0.28045551931676344 3.5333729187092811 0.32952326190775549 1.9657514513913121 3.0576901387525179 4.6364358663805438 -0.98896743137889753 0.9382420763991105 1.9343429175567342 0.83709787710383399 1.2642136609162202
leaf_weight=4171 9222 1102 1925 18578 2118 6983 430 994 4405 1048 5786 8728 1244 76 1739 9674 4297 1641 1962 651 256 4458 1560 987 411 10287 1083 325 2422 3590
leaf_count=4171 9222 1102 1925 18578 2118 6983 430 994 4405 1048 5786 8728 1244 76 1739 9674 4297 1641 1962 651 256 4458 1560 987 411 10287 1083 325 2422 3590
internal_value=0 0.695055 0.520899 -0.472732 -0.260815 -0.373204 2.2555 1.04552 0.179241 1.44585 -0.887779 0.0426315 0.742787 3.11335 1.92961 -0.557565 0.686662 -1.02877 0.392472 -0.535157 2.29741 0.0820498 1.64183 2.71841 4.26167 -1.09071 0.46412 0.934053 0.538416 1.12468
internal_weight=0 45479 40913 66674 44138 39693 4566 16136 24777 7627 22536 17950 4445 1904 3043 28252 8509 16099 3887 6437 1995 11441 2662 1417 487 14458 3201 4622 6827 4584
internal_count=112153 45479 40913 66674 44138 39693 4566 16136 24777 7627 22536 17950 4445 1904 3043 28252 8509 16099 3887 6437 1995 11441 2662 1417 487 14458 3201 4622 6827 4584
is_linear=0
shrinkage=0.05


Tree=20
num_leaves=31
num_cat=0
split_feature=16 11 24 3 11 3 23 3 3 20 11 3 19 19 11 16 12 23 24 1 28 16 28 28 24 27 24 27 20 3
split_gain=1.33979e+07 3.98831e+06 2.91199e+06 2.35669e+06 1.92675e+06 1.17812e+06 1.05301e+06 818865 814004 677387 493234 365511 301049 291562 291499 290846 287826 212922 200419 198940 422947 197264 188280 181347 159306 155550 152188 136156 134835 109530
threshold=129.07142857142858 1.0000000180025095e-35 94.017857142857153 3.5000000000000004 1.0000000180025095e-35 3.5000000000000004 120.50000000000001 4.5000000000000009 3.5000000000000004 175.96428571428575 1.0000000180025095e-35 3.5000000000000004 149.50000000000003 121.50000000000001 1.0000000180025095e-35 67.357142857142875 142.50000000000003 72.500000000000014 209.76785714285717 10.500000000000002 44.500000000000007 68.071428571428584 1.5000000000000002 15.500000000000002 149.73214285714289 72.500000000000014 149.73214285714289 93.500000000000014 224.17857142857147 4.5000000000000009
decision_type=2 2 2 2 2 2 2 2 2 2 2 2 2 2 2 2 2 2 2 2 2 2 2 2 2 2 2 2 2 2
left_child=2 3 8 9 5 25 16 13 14 22 15 -6 26 -3 21 -10 -5 -7 -8 27 -21 -1 -2 -11 -24 -4 -9 -18 -25 -19
right_child=1 7 4 6 11 17 18 12 10 23 -12 -13 -14 -15 -16 -17 19 29 -20 20 -22 -23 24 28 -26 -27 -28 -29 -30 -31
leaf_value=-1.244027712208263 -1.2817609022052512 1.5552852230034657 -0.54191521210251525 0.59575903812973707 0.55842177914853852 -0.040926480640641631 1.7909749136270954 2.6876026428772803 -0.91651687725026643 -0.17026200065525568 0.40844427871389677 1.5315103001204311 6.772283004328675 2.7608213477552312 -0.34150065160387388 -0.39068771900469101 0.71835753766064525 0.059726845654861964 2.8665039374749384 3.7623262644347601 1.2808208176278946 -0.87376179746778382 -0.02396259239331798 0.81172435315788494 0.31566290753257659 -0.24513341233047659 3.9217571505005591 1.2122762554693041 1.6931332659925191 0.47250119627318876
leaf_weight=4905 246 1868 13825 4615 2317 8190 1992 497 3524 414 1579 1654 67 686 2033 10364 2716 2434 554 201 1177 13501 8560 3122 5787 6487 505 2871 504 4731
leaf_count=4905 246 1868 13825 4615 2317 8190 1992 497 3524 414 1579 1654 67 686 2033 10364 2716 2434 554 201 1177 13501 8560 3122 5787 6487 505 2871 504 4731
internal_value=0 0.79149 -0.376424 0.617389 -0.0809675 -0.197285 1.10445 2.36564 -0.702588 0.248133 -0.428914 0.963762 3.52756 1.87919 -0.909685 -0.52412 0.902018 0.133222 2.02511 1.10493 1.64303 -0.97244 0.089508 0.82109 0.11303 -0.447135 3.30994 0.972186 0.934281 0.332282
internal_weight=0 36382 75544 32759 39638 35667 14126 3623 35906 18633 15467 3971 1069 2554 20439 13888 11580 15355 2546 6965 1378 18406 14593 4040 14347 20312 1002 5587 3626 7165
internal_count=111926 36382 75544 32759 39638 35667 14126 3623 35906 18633 15467 3971 1069 2554 20439 13888 11580 15355 2546 6965 1378 18406 14593 4040 14347 20312 1002 5587 3626 7165
is_linear=0
shrinkage=0.05


Tree=21
num_leaves=31
num_cat=0
split_feature=24 11 3 24 11 3 16 23 3 3 3 19 16 28 28 1 28 11 24 24 28 3 27 24 24 23 28 24 24 11
split_gain=1.21113e+07 3.92552e+06 2.3025e+06 2.1773e+06 1.75073e+06 1.16688e+06 976170 925316 794771 395061 361353 327878 306494 291775 278028 242181 289724 234259 228616 204727 195256 188462 187880 175697 170205 159456 144005 134911 133210 133559
threshold=122.48214285714288 1.0000000180025095e-35 4.5000000000000009 83.803571428571445 1.0000000180025095e-35 4.5000000000000009 160.92857142857147 113.50000000000001 4.5000000000000009 3.5000000000000004 4.5000000000000009 113.50000000000001 199.07142857142861 2.5000000000000004 21.500000000000004 10.500000000000002 45.500000000000007 1.0000000180025095e-35 197.12500000000006 204.30357142857144 1.5000000000000002 3.5000000000000004 60.500000000000007 147.44642857142858 106.87500000000001 94.500000000000014 2.5000000000000004 64.339285714285737 65.696428571428584 1.0000000180025095e-35
decision_type=2 2 2 2 2 2 2 2 2 2 2 2 2 2 2 2 2 2 2 2 2 2 2 2 2 2 2 2 2 2
left_child=3 2 6 9 5 15 13 20 11 28 -6 26 25 -2 -8 22 -17 27 -16 -9 -4 -15 -5 -22 -7 -10 -3 -11 -1 -30
right_child=1 8 7 4 10 24 14 19 12 17 -12 -13 -14 21 18 16 -18 -19 -20 -21 23 -23 -24 -25 -26 -27 -28 -29 29 -31
leaf_value=-1.2030827114091442 -0.81718143768656137 -0.3724980272584158 -0.54694388883385647 -0.6568486365596653 0.43613821686826021 -0.031704825637565638 0.11915270588358291 1.7477535777876749 2.313592244174024 -0.94465516942514915 1.4102708081177102 2.4278602127362809 5.9093091472502683 0.015653355296862972 0.68271322518581379 0.95479658963598613 -0.33478631754283911 0.162137985454406 1.3765049182748679 2.8931875311414181 0.73661396312550709 0.42921980963333795 -0.39533879012283851 1.2148480397463459 0.36041359613544866 3.5115518546250004 1.4207095094219362 -0.51672625809112727 -0.92994503819882568 -0.28489654449946039
leaf_weight=4345 916 119 235 12530 3337 7700 1721 2000 512 2594 1332 987 96 13730 5743 616 1486 1011 1497 485 5163 3446 15202 3059 4320 610 1881 6354 8007 892
leaf_count=4345 916 119 235 12530 3337 7700 1721 2000 512 2594 1332 987 96 13730 5743 616 1486 1011 1497 485 5163 3446 15202 3059 4320 610 1881 6354 8007 892
internal_value=0 0.671612 0.51118 -0.401578 -0.204257 -0.306702 0.263636 1.1232 2.12118 -0.797211 0.71407 1.68212 3.19767 0.0522569 0.6904 -0.474277 0.0431565 -0.55928 0.826185 1.97142 0.873936 0.098629 -0.513497 0.914554 0.109224 2.96515 1.314 -0.640791 -0.976121 -0.865292
internal_weight=0 42200 37995 69726 46523 41854 27053 10942 4205 23203 4669 2987 1218 18092 8961 29834 2102 9959 7240 2485 8457 17176 27732 8222 12020 1122 2000 8948 13244 8899
internal_count=111926 42200 37995 69726 46523 41854 27053 10942 4205 23203 4669 2987 1218 18092 8961 29834 2102 9959 7240 2485 8457 17176 27732 8222 12020 1122 2000 8948 13244 8899
is_linear=0
shrinkage=0.05


Tree=22
num_leaves=31
num_cat=0
split_feature=16 11 24 3 11 3 19 3 3 16 11 3 23 20 19 27 16 11 23 1 27 12 24 24 28 16 28 1 28 28
split_gain=1.09806e+07 3.29723e+06 2.32883e+06 1.98083e+06 1.61826e+06 1.02787e+06 909041 676965 576784 573096 345902 312321 271162 258236 255164 204295 203722 201505 188718 174439 150893 137630 132138 131109 127223 114526 102152 99952.8 325743 99273.1
threshold=128.21428571428575 1.0000000180025095e-35 90.875000000000014 3.5000000000000004 1.0000000180025095e-35 3.5000000000000004 130.50000000000003 4.5000000000000009 3.5000000000000004 184.07142857142861 1.0000000180025095e-35 3.5000000000000004 104.50000000000001 178.89285714285717 149.50000000000003 68.500000000000014 65.928571428571445 1.0000000180025095e-35 102.50000000000001 10.500000000000002 67.500000000000014 123.50000000000001 65.696428571428584 149.73214285714289 19.500000000000004 106.21428571428572 1.5000000000000002 10.500000000000002 44.500000000000007 2.5000000000000004
decision_type=2 2 2 2 2 2 2 2 2 2 2 2 2 2 2 2 2 2 2 2 2 2 2 2 2 2 2 2 2 2
left_child=2 3 8 9 5 20 12 13 17 18 16 -6 21 29 23 -7 -10 22 26 -8 -4 -5 -1 -9 -11 -13 -2 -23 -29 -3
right_child=1 7 4 6 11 15 19 14 10 24 -12 25 -14 -15 -16 -17 -18 -19 -20 -21 -22 27 -24 -25 -26 -27 -28 28 -30 -31
leaf_value=-1.1643788725021631 -1.0679464501705478 -0.69148430269765759 -0.54667238485369718 0.29930927301580434 0.45401091831380758 -0.053815058113141273 1.4344421618723251 2.4104826109618598 -0.85887910294486991 -0.14688920548312884 0.31699273412904633 0.88970960183140346 1.1615125487253324 2.7198580805144332 6.1534419638211615 0.3040562969604681 -0.39169051059199284 -0.35631493287455429 0.31856905705372751 2.2567492378720018 -0.28235626746286091 0.67258078165774327 -0.83112636824984998 3.5413710139237828 0.92487931080194385 1.6915409599840423 -0.015504791768621193 3.1714370238923135 0.81587405450099004 1.4988382100362507
leaf_weight=3916 236 53 12489 2133 2482 10048 1306 521 3130 306 1407 830 3681 488 67 6612 9170 1819 5764 1276 9513 4955 12386 507 2907 962 9834 176 882 2070
leaf_count=3916 236 53 12489 2133 2482 10048 1306 521 3130 306 1407 830 3681 488 67 6612 9170 1819 5764 1276 9513 4955 12386 507 2907 962 9834 176 882 2070
internal_value=0 0.705348 -0.346256 0.548593 -0.105993 -0.208054 0.990927 2.1204 -0.67037 0.213964 -0.425632 0.817222 0.805354 1.68266 3.16395 0.0882172 -0.510583 -0.85549 0.0904147 1.84089 -0.432392 0.6444 -0.911186 2.96852 0.822803 1.32023 -0.0401806 0.766807 1.20799 1.44413
internal_weight=0 37162 74764 33456 42936 38662 14409 3706 31828 19047 13707 4274 11827 2611 1095 16660 12300 18121 15834 2582 22002 8146 16302 1028 3213 1792 10070 6013 1058 2123
internal_count=111926 37162 74764 33456 42936 38662 14409 3706 31828 19047 13707 4274 11827 2611 1095 16660 12300 18121 15834 2582 22002 8146 16302 1028 3213 1792 10070 6013 1058 2123
is_linear=0
shrinkage=0.05


Tree=23
num_leaves=31
num_cat=0
split_feature=19 11 19 3 11 3 24 20 3 3 3 1 20 20 11 24 11 20 12 28 24 35 24 24 20 1 28 24 1 28
split_gain=9.97588e+06 3.13066e+06 1.98229e+06 1.83917e+06 1.41984e+06 944478 762578 701777 657551 493601 275715 260868 257201 233822 245661 233469 216690 212840 193656 170144 167505 151174 150490 134473 122759 121816 264814 120030 117231 170309
threshold=88.500000000000014 1.0000000180025095e-35 61.500000000000007 4.5000000000000009 1.0000000180025095e-35 3.5000000000000004 155.66071428571431 182.10714285714289 4.5000000000000009 4.5000000000000009 3.5000000000000004 10.500000000000002 162.03571428571431 66.535714285714292 1.0000000180025095e-35 190.23214285714286 1.0000000180025095e-35 141.67857142857147 107.50000000000001 45.500000000000007 192.26785714285717 -0.24999999999999994 108.4464285714286 66.410714285714292 247.82142857142861 10.500000000000002 44.500000000000007 133.26785714285717 10.500000000000002 44.500000000000007
decision_type=2 2 2 2 2 2 2 2 2 2 2 2 2 2 2 2 2 2 2 2 2 2 2 2 2 2 2 2 2 2
left_child=2 3 9 6 5 22 25 17 12 13 -6 21 -3 -1 -15 -10 23 -5 -7 -13 -21 -8 -4 -11 -9 27 -27 -2 -20 -30
right_child=1 8 4 7 10 18 11 24 15 16 -12 19 -14 14 -16 -17 -18 -19 28 20 -22 -23 -24 -25 -26 26 -28 -29 29 -31
leaf_value=-1.0448373054738709 -0.20165905612209936 1.2481239390957564 -0.54921895143392285 0.59409884959797066 0.40164921805418186 -0.097923595959121285 0.61690405499334533 1.9039341408038233 2.7742127348704346 -0.75708737289493733 1.2181013013553033 2.5501443371116466 2.2892336182668336 -0.74106290154507493 -0.095316362385697448 5.1709462834922331 0.4075005877201166 1.1007933516991388 0.18654951578001219 0.52803354487381393 1.3510667658413811 0.13490927136793271 -0.28269926481984353 -0.29182815872702295 3.8128644487004224 2.8432783017449883 0.25610805404497289 0.11215488122999102 2.1070860759550274 0.38678886184646705
leaf_weight=5836 5225 1862 12166 3630 2423 8267 4846 1577 1016 2109 1804 173 871 14531 1639 113 891 4832 7252 1271 1204 2449 9381 5892 89 103 2434 7310 197 533
leaf_count=5836 5225 1862 12166 3630 2423 8267 4846 1577 1016 2109 1804 173 871 14531 1639 113 891 4832 7252 1271 1204 2449 9381 5892 89 103 2434 7310 197 533
internal_value=0 0.648182 -0.342478 0.499682 -0.11894 -0.216135 0.269523 1.06814 1.99943 -0.6465 0.750117 0.609411 1.58 -0.773534 -0.675611 3.01454 -0.332107 0.883443 0.0716865 1.03449 0.928451 0.455099 -0.433185 -0.414475 2.00614 0.0452966 0.361255 -0.0186532 0.247352 0.851265
internal_weight=0 39005 72921 35143 42023 37796 25015 10128 3862 30898 4227 9943 2733 22006 16170 1129 8892 8462 16249 2648 2475 7295 21547 8001 1666 15072 2537 12535 7982 730
internal_count=111926 39005 72921 35143 42023 37796 25015 10128 3862 30898 4227 9943 2733 22006 16170 1129 8892 8462 16249 2648 2475 7295 21547 8001 1666 15072 2537 12535 7982 730
is_linear=0
shrinkage=0.05


Tree=24
num_leaves=31
num_cat=0
split_feature=24 11 24 3 11 3 23 3 20 3 3 28 16 28 23 1 28 23 11 16 11 28 12 28 20 28 35 1 28 20
split_gain=9.04121e+06 2.81898e+06 1.82622e+06 1.66622e+06 1.28388e+06 910759 809960 555719 486383 402176 270218 250361 225760 224840 220569 202805 275208 197327 190661 186538 194059 169961 162961 154846 142804 130492 128086 125864 374382 121742
threshold=126.12500000000001 1.0000000180025095e-35 87.982142857142875 3.5000000000000004 1.0000000180025095e-35 4.5000000000000009 113.50000000000001 4.5000000000000009 175.96428571428575 4.5000000000000009 4.5000000000000009 1.5000000000000002 194.78571428571431 2.5000000000000004 116.50000000000001 10.500000000000002 45.500000000000007 149.50000000000003 1.0000000180025095e-35 64.500000000000014 1.0000000180025095e-35 2.5000000000000004 127.50000000000001 2.5000000000000004 109.25000000000001 12.500000000000002 -0.9330127018922193 10.500000000000002 45.500000000000007 103.89285714285717
decision_type=2 2 2 2 2 2 2 2 2 2 2 2 2 2 2 2 2 2 2 2 2 2 2 2 2 2 2 2 2 2
left_child=2 3 9 8 5 15 11 12 13 19 29 -5 23 -2 -9 21 -17 -8 -11 -1 -21 -4 -13 -3 -7 -10 -23 -24 -29 -6
right_child=1 7 4 6 10 24 17 14 25 18 -12 22 -14 -15 -16 16 -18 -19 -20 20 -22 26 27 -25 -26 -27 -28 28 -30 -31
leaf_value=-1.0203814141275931 -0.83971475452782074 -0.39625022540878596 -1.3500591145530487 -0.65769120937299941 0.10171887242495443 0.014809470769819555 1.3697491775024431 2.4722704602199261 -0.23861164906696911 -0.42315871969387786 1.2889042196264768 0.41116358478790682 2.7878672402824218 0.093549544412824759 4.1760753566669271 0.9929054395752317 -0.25115417255013261 2.4152477785055573 0.37888398417215802 -0.73022575482442742 -0.13315423446516683 -0.0911880533526786 0.74398098433946946 1.446059548302137 0.3720899106324731 0.75749049052308637 -0.42910656238830891 2.8389780991061828 0.81158412123641321 0.7151362809436429
leaf_weight=5090 674 120 467 346 1510 7013 3186 888 361 7269 1276 3244 310 15138 242 614 1610 526 825 13542 1513 3195 6410 2286 4652 3679 22935 298 965 1742
leaf_count=5090 674 120 467 346 1510 7013 3186 888 361 7269 1276 3244 310 15138 242 614 1610 526 825 13542 1513 3195 6410 2286 4652 3679 22935 298 965 1742
internal_value=0 0.621101 -0.323899 0.479237 -0.126163 -0.215465 0.877431 1.90568 0.178864 -0.639096 0.672296 0.666317 1.5179 0.053763 2.8375 -0.366336 0.0923317 1.51796 -0.341404 -0.758702 -0.670223 -0.40469 0.708285 1.35416 0.157295 0.668477 -0.387789 0.833895 1.29013 0.430322
internal_weight=0 38673 73253 34827 45014 40486 14975 3846 19852 28239 4528 11263 2716 15812 1130 28821 2224 3712 8094 20145 15055 26597 10917 2406 11665 4040 26130 7673 1263 3252
internal_count=111926 38673 73253 34827 45014 40486 14975 3846 19852 28239 4528 11263 2716 15812 1130 28821 2224 3712 8094 20145 15055 26597 10917 2406 11665 4040 26130 7673 1263 3252
is_linear=0
shrinkage=0.05


Tree=25
num_leaves=31
num_cat=0
split_feature=19 11 3 24 11 3 24 20 3 24 3 3 1 24 28 24 24 28 20 24 1 28 11 28 35 23 24 19 1 1
split_gain=8.25206e+06 2.69739e+06 1.63183e+06 1.36828e+06 1.12111e+06 833196 773033 691868 554532 304278 235592 230836 222697 191736 173440 203183 171408 165997 157453 151949 149559 300807 143701 129312 127812 117431 111444 107177 95608.7 93153.9
threshold=84.500000000000014 1.0000000180025095e-35 4.5000000000000009 82.482142857142875 1.0000000180025095e-35 4.5000000000000009 154.94642857142858 173.17857142857147 3.5000000000000004 150.37500000000003 3.5000000000000004 3.5000000000000004 10.500000000000002 138.91071428571431 2.5000000000000004 107.30357142857143 139.48214285714289 45.500000000000007 216.46428571428575 209.76785714285717 10.500000000000002 44.500000000000007 1.0000000180025095e-35 42.500000000000007 -0.24999999999999994 72.500000000000014 132.76785714285717 148.50000000000003 10.500000000000002 10.500000000000002
decision_type=2 2 2 2 2 2 2 2 2 2 2 2 2 2 2 2 2 2 2 2 2 2 2 2 2 2 2 2 2 2
left_child=3 2 6 10 5 14 20 16 13 -10 29 -6 24 -3 -5 -16 -4 -14 -9 -19 26 -22 28 -11 -8 -7 -2 -15 -12 -1
right_child=1 8 7 4 11 25 12 18 9 23 22 -13 17 27 15 -17 -18 19 -20 -21 21 -23 -24 -25 -26 -27 -28 -29 -30 -31
leaf_value=-0.84088378700773425 -0.19533800305912458 0.65708137932437283 0.49983375415438042 -1.0457525435440755 0.24923104478846292 -0.013370867610297939 0.5539221944313536 1.5105471645488577 1.8096623140951171 2.6961545063737309 -0.58109293040954213 0.96772978564550005 2.3648301932737201 1.4195436833932988 -0.48649888034062622 -0.20151971583739289 0.93003086266707591 0.57932423568058788 2.6515675855612235 1.4312858910381763 2.642959634310047 0.22339752826973053 0.097510703048237057 4.1255260345811315 0.12117205103929787 0.34485661560697212 0.073463557833476092 2.8207778495365972 0.30935388893544613 -0.13753878328127536
leaf_weight=12030 7547 962 4648 1055 2672 8778 4953 1867 1131 590 8127 1922 188 1340 19035 9316 4615 1812 361 736 135 2613 960 217 2603 3094 7884 152 313 490
leaf_count=12030 7547 962 4648 1055 2672 8778 4953 1867 1131 590 8127 1922 188 1340 19035 9316 4615 1812 361 736 135 2613 960 217 2603 3094 7884 152 313 490
internal_value=0 0.530808 0.401539 -0.346369 -0.191088 -0.273551 0.198554 0.904465 1.70696 2.33918 -0.671322 0.549846 0.544812 1.20759 -0.416285 -0.392857 0.714174 0.931325 1.69554 0.825465 0.00251869 0.342356 -0.482134 3.08098 0.404846 0.0799896 -0.0580021 1.56248 -0.548067 -0.813358
internal_weight=0 44354 39962 67792 45872 41278 28471 11491 4392 1938 21920 4594 10292 2454 29406 28351 9263 2736 2228 2548 18179 2748 9400 807 7556 11872 15431 1492 8440 12520
internal_count=112146 44354 39962 67792 45872 41278 28471 11491 4392 1938 21920 4594 10292 2454 29406 28351 9263 2736 2228 2548 18179 2748 9400 807 7556 11872 15431 1492 8440 12520
is_linear=0
shrinkage=0.05


Tree=26
num_leaves=31
num_cat=0
split_feature=23 11 3 43 11 19 4 3 24 1 1 3 1 23 19 1 28 3 23 27 35 11 11 19 35 28 24 19 27 27
split_gain=7.45773e+06 2.29054e+06 1.42615e+06 1.42266e+06 981452 724180 685802 490276 450183 403177 395413 323395 282709 261875 235333 210060 166280 157055 155245 154812 149468 145617 137039 128144 124327 123679 109586 103093 98730 96066.2
threshold=81.500000000000014 1.0000000180025095e-35 3.5000000000000004 1.0000000180025095e-35 1.0000000180025095e-35 134.50000000000003 1.0000000180025095e-35 3.5000000000000004 170.73214285714289 10.500000000000002 10.500000000000002 4.5000000000000009 10.500000000000002 104.50000000000001 125.50000000000001 10.500000000000002 44.500000000000007 3.5000000000000004 113.50000000000001 41.500000000000007 -0.9330127018922193 1.0000000180025095e-35 1.0000000180025095e-35 172.50000000000003 -0.9330127018922193 5.5000000000000009 141.33928571428575 164.50000000000003 64.500000000000014 41.500000000000007
decision_type=2 2 2 2 2 2 2 2 2 2 2 2 2 2 2 2 2 2 2 2 2 2 2 2 2 2 2 2 2 2
left_child=3 2 8 9 6 13 10 18 26 11 24 19 17 -4 -9 20 -11 -6 -3 -1 -8 29 -21 -7 -5 -10 -2 -27 -26 -13
right_child=1 7 5 4 12 23 15 14 25 16 -12 21 -14 -15 -16 -17 -18 -19 -20 22 -22 -23 -24 -25 28 27 -28 -29 -30 -31
leaf_value=-0.88380427574240827 -0.11153615316421464 0.95448478061031283 0.5030545957212742 -0.015361587912926564 0.29316734449192666 1.5046363802313967 0.68892408579554676 2.0145405898677002 -0.10660179872747522 1.1220354401565478 0.70119774103636046 -0.6428752623729006 2.7365513031640014 0.98222654250003605 3.4574051912054444 1.3607253876536096 -0.11527656235678091 0.95146919818115916 1.9307125409325696 -0.65722816811232687 0.05207505783881039 0.27439361706318838 -0.12368486985837407 2.7204166604439841 -0.49968593013731266 0.58917854833966121 0.14879405864225201 1.3522445971257302 -0.28615411658870332 -0.27656411862030134
leaf_weight=7839 7771 1697 9541 2313 2197 1830 1030 1406 560 303 904 2840 156 4067 354 353 2607 1542 536 12141 8726 859 1336 246 11704 3441 8425 508 10073 4841
leaf_count=7839 7771 1697 9541 2313 2197 1830 1030 1406 560 303 904 2840 156 4067 354 353 2607 1542 536 12141 8726 859 1336 246 11704 3441 8425 508 10073 4841
internal_value=0 0.544081 0.419337 -0.305329 -0.101269 0.778983 -0.184823 1.68086 0.146903 -0.548201 -0.325374 -0.602957 0.651733 0.64627 2.30494 0.162681 0.0135894 0.564677 1.18889 -0.707117 0.119318 -0.342967 -0.604339 1.64883 -0.3639 0.588763 0.0238848 0.687373 -0.400918 -0.412013
internal_weight=0 40382 36389 71764 38998 15684 35103 3993 20705 32766 24994 29856 3895 13608 1760 10109 2910 3739 2233 21316 9756 8540 13477 2076 24090 4509 16196 3949 21777 7681
internal_count=112146 40382 36389 71764 38998 15684 35103 3993 20705 32766 24994 29856 3895 13608 1760 10109 2910 3739 2233 21316 9756 8540 13477 2076 24090 4509 16196 3949 21777 7681
is_linear=0
shrinkage=0.05


Tree=27
num_leaves=31
num_cat=0
split_feature=16 11 16 3 11 3 19 3 3 16 19 11 3 16 19 11 23 28 28 24 20 24 27 27 1 28 23 27 1 28
split_gain=6.77644e+06 1.87617e+06 1.68752e+06 1.14519e+06 1.05003e+06 694750 526798 479291 390731 315479 266731 244238 208423 188219 175552 159203 155762 134235 128404 133192 121758 116468 99981.9 90672.7 88385.7 273310 80656.6 77332.4 76463.8 77097.8
threshold=133.6428571428572 1.0000000180025095e-35 96.785714285714306 3.5000000000000004 1.0000000180025095e-35 4.5000000000000009 134.50000000000003 3.5000000000000004 3.5000000000000004 184.07142857142861 48.500000000000007 1.0000000180025095e-35 4.5000000000000009 201.35714285714289 49.500000000000007 1.0000000180025095e-35 105.50000000000001 1.5000000000000002 1.5000000000000002 114.41071428571431 188.53571428571431 217.44642857142858 72.500000000000014 102.50000000000001 10.500000000000002 44.500000000000007 163.50000000000003 93.500000000000014 10.500000000000002 44.500000000000007
decision_type=2 2 2 2 2 2 2 2 2 2 2 2 2 2 2 2 2 2 2 2 2 2 2 2 2 2 2 2 2 2
left_child=2 3 7 9 5 18 16 14 20 17 -9 -12 -6 27 -1 -16 24 -2 -4 -20 -3 -8 -7 -19 -5 -26 -11 28 -10 -30
right_child=1 8 4 6 12 22 21 10 13 26 11 -13 -14 -15 15 -17 -18 23 19 -21 -22 -23 -24 -25 25 -27 -28 -29 29 -31
leaf_value=-0.81557666596002287 -0.97321584585926879 1.0857204896258923 -1.2821294003798285 0.4697505501814172 0.53447359168440578 0.12279304693839217 1.3883251952812745 -0.56681349463110398 1.4634651943864787 0.57525181480841192 -0.21853483009431771 0.54167564512694411 1.3458544461911142 4.136906599716113 -0.57867894830933386 -0.039067445800452405 0.95268926964671652 0.048047068675779521 -0.33552002077600435 -0.10256281901659235 2.2365768117772915 2.360077496924049 0.44497805544191626 0.34765349456678596 2.8799962618479542 0.64739071218354283 1.4731258845054285 2.5466473026242396 5.0680239690538125 2.2027379696163605
leaf_weight=7884 284 1547 293 5630 2790 6106 1720 5420 477 2981 10716 1172 1105 135 13733 1518 3780 9799 13470 11269 270 376 3976 3402 158 1032 273 677 29 124
leaf_count=7884 284 1547 293 5630 2790 6106 1720 5420 477 2981 10716 1172 1105 135 13733 1518 3780 9799 13470 11269 270 376 3976 3402 158 1032 273 677 29 124
internal_value=0 0.606398 -0.248817 0.480362 -0.0141879 -0.100587 0.838463 -0.475127 1.7447 0.20875 -0.276121 -0.143584 0.76469 2.35927 -0.624007 -0.52497 0.695231 0.102119 -0.241733 -0.229405 1.25685 1.56275 0.249856 0.12526 0.552522 0.944042 0.650625 2.17536 1.77602 2.74882
internal_weight=0 32694 79452 29435 39009 35114 12696 40443 3259 16739 17308 11888 3895 1442 23135 15251 10600 13485 25032 24739 1817 2096 10082 13201 6820 1190 3254 1307 630 153
internal_count=112146 32694 79452 29435 39009 35114 12696 40443 3259 16739 17308 11888 3895 1442 23135 15251 10600 13485 25032 24739 1817 2096 10082 13201 6820 1190 3254 1307 630 153
is_linear=0
shrinkage=0.05


Tree=28
num_leaves=31
num_cat=0
split_feature=24 11 3 16 11 19 16 3 3 19 19 28 24 16 3 3 28 1 1 28 24 35 28 20 35 28 19 3 20 1
split_gain=6.1355e+06 2.14368e+06 1.37207e+06 856966 717610 688628 608036 562452 464516 247421 213450 203282 180536 168312 160110 148944 128728 128584 110285 150975 109900 107719 102278 98857.5 90652.2 90157.7 88874.2 84880.4 84177 82642.2
threshold=114.83928571428572 1.0000000180025095e-35 4.5000000000000009 79.071428571428584 1.0000000180025095e-35 110.50000000000001 188.21428571428575 3.5000000000000004 3.5000000000000004 102.50000000000001 107.50000000000001 3.5000000000000004 188.16071428571433 178.78571428571431 4.5000000000000009 4.5000000000000009 2.5000000000000004 10.500000000000002 10.500000000000002 44.500000000000007 134.83928571428575 -0.9330127018922193 44.500000000000007 247.82142857142861 -0.9330127018922193 2.5000000000000004 132.50000000000003 3.5000000000000004 58.678571428571438 10.500000000000002
decision_type=2 2 2 2 2 2 2 2 2 2 2 2 2 2 2 2 2 2 2 2 2 2 2 2 2 2 2 2 2 2
left_child=3 2 5 15 7 11 10 29 13 -10 16 -2 27 25 -6 28 -4 -11 21 -20 -13 -9 -19 -8 -18 -3 -24 -7 -1 -5
right_child=1 8 6 4 14 12 23 18 9 17 -12 20 -14 -15 -16 -17 24 22 19 -21 -22 -23 26 -25 -26 -27 -28 -29 -30 -31
leaf_value=-0.97529539171180935 -0.5764682333558212 -0.61096197595310264 -0.37806863386782891 -0.46885820338066203 0.21654207474210796 0.255589742860448 1.6136471428957186 0.2421434791863431 1.4366650714303335 2.1627038791146802 0.93465527169453377 -0.094261551435931207 0.81172246487442179 1.8816067533631209 0.89808090893895864 -0.38969601132689369 1.0453691154934546 6.8612670291122519 1.5126823796321851 0.12200374378234265 0.14492098909111814 -0.14426762178576114 2.2148419233184744 3.3361635192208556 0.46284767376443514 0.87354397007685114 4.0638062700008826 0.65535983468776582 -0.64196688805239299 -0.092998586090385735
leaf_weight=2269 1616 107 421 20320 3070 6572 1304 2087 1144 751 3651 11358 2637 430 1198 5530 741 20 245 958 8321 13276 129 89 6769 2284 132 1664 11477 1576
leaf_count=2269 1616 107 421 20320 3070 6572 1304 2087 1144 751 3651 11358 2637 430 1198 5530 741 20 245 958 8321 13276 129 89 6769 2284 132 1664 11477 1576
internal_value=0 0.411751 0.302977 -0.332085 -0.207238 0.127909 0.737006 -0.275495 1.39439 1.94329 0.618291 -0.0373964 0.45166 0.970936 0.407863 -0.608838 0.472643 2.5047 -0.055672 0.405332 0.00687353 -0.0917737 3.4176 1.72394 0.520338 0.807086 3.15117 0.336367 -0.696995 -0.441806
internal_weight=0 50140 45143 62006 42730 32168 12975 38462 4997 2176 11582 21295 10873 2821 4268 19276 7931 1032 16566 1203 19679 15363 281 1393 7510 2391 261 8236 13746 21896
internal_count=112146 50140 45143 62006 42730 32168 12975 38462 4997 2176 11582 21295 10873 2821 4268 19276 7931 1032 16566 1203 19679 15363 281 1393 7510 2391 261 8236 13746 21896
is_linear=0
shrinkage=0.05


Tree=29
num_leaves=31
num_cat=0
split_feature=19 11 3 27 11 3 24 16 3 1 3 24 16 24 3 1 28 28 23 1 28 20 35 28 20 35 11 20 28 11
split_gain=5.56979e+06 1.78046e+06 1.11625e+06 1.02241e+06 753279 550475 513065 487871 379762 235199 190980 187048 171987 163964 159460 150924 131801 120548 114647 113185 261995 108143 103483 97472.9 94254.7 92816.1 90153.1 89149.9 87449.3 83425.2
threshold=85.500000000000014 1.0000000180025095e-35 4.5000000000000009 50.500000000000007 1.0000000180025095e-35 3.5000000000000004 157.83928571428575 188.21428571428575 4.5000000000000009 10.500000000000002 4.5000000000000009 146.37500000000003 201.35714285714289 156.37500000000003 3.5000000000000004 10.500000000000002 45.500000000000007 44.500000000000007 72.500000000000014 10.500000000000002 44.500000000000007 224.17857142857147 -0.24999999999999994 1.5000000000000002 216.46428571428575 -0.9330127018922193 1.0000000180025095e-35 247.82142857142861 45.500000000000007 1.0000000180025095e-35
decision_type=2 2 2 2 2 2 2 2 2 2 2 2 2 2 2 2 2 2 2 2 2 2 2 2 2 2 2 2 2 2
left_child=3 2 6 9 5 -5 19 13 11 10 26 -3 -10 -4 -6 22 -17 -11 -7 25 -21 -18 -8 -13 -25 -2 -1 -9 -22 -12
right_child=1 8 7 4 14 18 15 27 12 17 29 23 -14 -15 -16 16 21 -19 -20 20 28 -23 -24 24 -26 -27 -28 -29 -30 -31
leaf_value=-0.68696004755591977 0.25178580175838272 0.70727769571270471 0.51309353253889056 -0.36136768450450751 0.24034146703957801 -0.066452831312697427 0.48759676526560486 1.533699809580586 1.9845086479882845 1.0060217992680978 -0.39855339974617193 -1.2281256804956453 4.3002391361643353 0.97458130303543022 0.85732324332952059 2.1547382835711213 0.51344273034025656 -0.13373890715936906 0.21995937141685193 2.4745664656654864 0.85379044558827855 1.2878281336321553 0.069913384517009722 1.4489152441502438 3.0169786879787388 -0.087383899999122605 -0.31499420549005686 3.1695426037850738 0.07616764798289663 0.17132050366846602
leaf_weight=15767 2381 1469 7128 22106 2489 11692 4411 1302 1185 298 6382 32 86 2637 1808 167 1842 1046 4983 133 431 597 2234 1381 103 13195 1817 89 2241 714
leaf_count=15767 2381 1469 7128 22106 2489 11692 4411 1302 1185 298 6382 32 86 2637 1808 167 1842 1046 4983 133 431 597 2234 1381 103 13195 1817 89 2241 714
internal_value=0 0.446921 0.340399 -0.277647 -0.128161 -0.197759 0.169966 0.762534 1.4177 -0.525091 -0.560169 1.10944 2.14153 0.637726 0.499957 0.473661 0.796148 0.119028 0.0191364 0.0171171 0.309487 0.703038 0.347179 1.49906 1.55795 -0.0355357 -0.648526 1.63859 0.201629 -0.34121
internal_weight=0 43044 38788 69102 43078 38781 27632 11156 4256 26024 24680 2985 1271 9765 4297 9251 2606 1344 16675 18381 2805 2439 6645 1516 1484 15576 17584 1391 2672 7096
internal_count=112146 43044 38788 69102 43078 38781 27632 11156 4256 26024 24680 2985 1271 9765 4297 9251 2606 1344 16675 18381 2805 2439 6645 1516 1484 15576 17584 1391 2672 7096
is_linear=0
shrinkage=0.05


Tree=30
num_leaves=31
num_cat=0
split_feature=23 11 13 12 11 12 4 36 36 1 20 27 28 20 24 11 1 13 36 35 28 1 35 16 28 36 32 28 1 28
split_gain=5.12807e+06 1.88994e+06 1.13643e+06 696620 439655 417542 401929 332199 242816 231652 221147 215272 209311 206591 202157 155559 142718 142716 128757 123966 117841 114342 112154 105704 100098 93474.7 92943.4 86476.5 82697.3 93001
threshold=73.500000000000014 1.0000000180025095e-35 153.50000000000003 82.500000000000014 1.0000000180025095e-35 164.50000000000003 1.0000000180025095e-35 -1.0000000180025095e-35 -1.0000000180025095e-35 10.500000000000002 169.60714285714289 39.500000000000007 44.500000000000007 146.39285714285717 190.23214285714286 1.0000000180025095e-35 10.500000000000002 207.50000000000003 -1.0000000180025095e-35 -0.5 1.5000000000000002 10.500000000000002 -0.9330127018922193 140.78571428571431 44.500000000000007 -1.0000000180025095e-35 314.50000000000006 1.5000000000000002 10.500000000000002 45.500000000000007
decision_type=2 2 2 2 2 2 2 2 2 2 2 2 2 2 2 2 2 2 2 2 2 2 2 2 2 2 2 2 2 2
left_child=3 2 8 11 7 18 10 16 -2 19 -3 -1 -11 -10 23 25 22 -14 27 -7 -12 -6 -5 -8 -23 -13 -18 -4 -9 -30
right_child=1 6 5 4 21 9 14 28 13 12 20 15 17 -15 -16 -17 26 -19 -20 -21 -22 24 -24 -25 -26 -27 -28 -29 29 -31
leaf_value=-0.70796875996819075 0.29994937744229233 0.79968993218801676 -0.5787092352887665 0.3039678425134445 0.33027945872917497 0.83286213457393332 1.3716342298419133 -0.4179046823195256 -0.12191145129895763 3.6563524972271004 -1.4347862078254954 -0.29874915000411179 0.78485023810910948 0.20526573735278497 3.9666174357710045 0.0051150508858250976 1.085774159189369 1.5107055774735585 0.095599999288251872 0.29335561949266259 1.9316757663845234 3.3690502726436762 -0.13957194035369827 2.2400937395676865 0.91053569466674955 -0.53105615925069671 0.11995552189782298 0.53079250623559859 0.56702216530193505 -0.36700192099143425
leaf_weight=8131 8939 2993 181 1639 2865 3279 735 12916 14132 86 27 6649 1340 7326 115 2082 436 1370 2986 1577 654 54 10924 671 177 12420 581 5825 469 617
leaf_count=8131 8939 2993 181 1639 2865 3279 735 12916 14132 86 27 6649 1340 7326 115 2082 436 1370 2986 1577 654 54 10924 671 177 12420 581 5825 469 617
internal_value=0 0.362801 0.262854 -0.314871 -0.148367 0.594968 1.2678 -0.211783 0.0810015 0.866444 0.984779 -0.489313 1.229 -0.0102088 1.95134 -0.405252 -0.0355842 1.15184 0.36394 0.657667 1.79801 0.416594 -0.0817043 1.78623 1.48648 -0.450057 0.534084 0.497346 -0.38267 0.0363762
internal_weight=0 52236 47041 59960 30678 16644 5195 27582 30397 7652 3674 29282 2796 21458 1521 21151 13580 2710 8992 4856 681 3096 12563 1406 231 19069 1017 6006 14002 1086
internal_count=112196 52236 47041 59960 30678 16644 5195 27582 30397 7652 3674 29282 2796 21458 1521 21151 13580 2710 8992 4856 681 3096 12563 1406 231 19069 1017 6006 14002 1086
is_linear=0
shrinkage=0.05


Tree=31
num_leaves=31
num_cat=0
split_feature=27 11 36 12 11 16 36 4 16 1 23 1 28 16 1 24 35 11 35 28 28 24 1 16 28 16 36 35 24 43
split_gain=4.65938e+06 1.51128e+06 951997 838421 566043 504945 367426 336251 324483 224522 215984 198479 198138 178406 174537 165841 140557 135371 133398 123169 121815 122484 116748 106261 95943.3 93443.2 89039.4 88108.5 87977.7 85755.2
threshold=73.500000000000014 1.0000000180025095e-35 -1.0000000180025095e-35 82.500000000000014 1.0000000180025095e-35 156.6428571428572 -1.0000000180025095e-35 1.0000000180025095e-35 184.07142857142861 10.500000000000002 48.500000000000007 10.500000000000002 44.500000000000007 150.92857142857147 10.500000000000002 190.23214285714286 -0.9330127018922193 1.0000000180025095e-35 -0.5 44.500000000000007 1.5000000000000002 148.58928571428575 10.500000000000002 221.35714285714289 44.500000000000007 199.07142857142861 -1.0000000180025095e-35 -0.9330127018922193 56.267857142857146 1.0000000180025095e-35
decision_type=2 2 2 2 2 2 2 2 2 2 2 2 2 2 2 2 2 2 2 2 2 2 2 2 2 2 2 2 2 2
left_child=3 2 5 10 6 -2 11 13 20 18 28 16 -11 -3 26 -9 -5 -12 -7 -16 -4 -22 27 -15 -13 -14 -6 -8 -1 -18
right_child=1 7 8 4 14 9 22 15 -10 12 17 24 25 23 19 -17 29 -19 -20 -21 21 -23 -24 -25 -26 -27 -28 -29 -30 -31
leaf_value=-0.9413067440906735 0.38162162802099586 0.67263393963841756 -0.95198900929386177 0.30936430441124607 0.62379337897819775 0.94087869442423511 -0.089740581694964155 1.7788696021146553 0.55926057066250068 3.6973351437636097 -0.38255166715449107 1.3058746882975658 0.94736035577384792 1.3035304546439321 3.4556395333620813 3.7684589115978842 -0.31700668097287715 0.10160792492145512 0.34132398578854178 1.0762707349627501 -0.067120380056934215 0.19440045322663788 0.050066058103757222 2.9398697705069261 0.33780000255715154 1.6611568367912886 0.11290981026193675 -0.41959317698695381 -0.55683398146323149 -0.033730214446502489
leaf_weight=1703 11017 1799 321 2252 1646 2803 2383 1176 3170 89 14864 321 977 1219 65 115 3828 1599 1387 332 12056 7122 1847 108 1262 865 1770 13461 11795 8844
leaf_count=1703 11017 1799 321 2252 1646 2803 2383 1176 3170 89 14864 321 977 1219 65 115 3828 1599 1387 332 12056 7122 1847 108 1262 865 1770 13461 11795 8844
internal_value=0 0.400074 0.302708 -0.259295 -0.103389 0.583926 -0.167817 1.27753 0.0901029 0.948034 -0.457088 0.00184929 1.39411 0.997114 0.474442 1.95638 -0.0546182 -0.335526 0.742424 1.46662 0.0138281 0.029999 -0.326128 1.43692 0.534179 1.28263 0.359092 -0.369983 -0.605349 -0.119306
internal_weight=0 44224 39807 67972 38011 17138 34198 4417 22669 6121 29961 16507 1931 3126 3813 1291 14924 16463 4190 397 19499 19178 17691 1327 1583 1842 3416 15844 13498 12672
internal_count=112196 44224 39807 67972 38011 17138 34198 4417 22669 6121 29961 16507 1931 3126 3813 1291 14924 16463 4190 397 19499 19178 17691 1327 1583 1842 3416 15844 13498 12672
is_linear=0
shrinkage=0.05


Tree=32
num_leaves=31
num_cat=0
split_feature=24 11 43 4 11 4 16 23 4 1 1 36 28 1 16 1 32 28 1 24 20 28 35 28 8 24 4 35 28 8
split_gain=4.23515e+06 1.29487e+06 925024 802659 529580 412712 342184 340738 278716 258688 221004 200338 186871 143341 139552 133619 130321 128215 127037 123128 118917 117246 113980 113163 112298 102195 98949.3 95717.7 89834.9 79688.7
threshold=126.12500000000001 1.0000000180025095e-35 1.0000000180025095e-35 1.0000000180025095e-35 1.0000000180025095e-35 1.0000000180025095e-35 192.92857142857147 122.50000000000001 1.0000000180025095e-35 10.500000000000002 10.500000000000002 -1.0000000180025095e-35 2.5000000000000004 10.500000000000002 201.35714285714289 10.500000000000002 310.50000000000006 3.5000000000000004 10.500000000000002 155.66071428571431 200.17857142857147 1.5000000000000002 -0.9330127018922193 45.500000000000007 6.0000000000000009 152.30357142857147 1.0000000180025095e-35 -0.9330127018922193 44.500000000000007 4.0000000000000009
decision_type=2 2 2 2 2 2 2 2 2 2 2 2 2 2 2 2 2 2 2 2 2 2 2 2 2 2 2 2 2 2
left_child=2 3 9 7 5 10 17 12 13 11 27 24 -2 21 -10 26 -15 -5 22 -19 -18 -3 -7 -11 29 -14 -6 -4 -12 -1
right_child=1 8 4 6 15 18 -8 -9 14 23 28 -13 25 16 -16 -17 20 19 -20 -21 -22 -23 -24 -25 -26 -27 -28 -29 -30 -31
leaf_value=-0.34152639101001647 -0.52708610191234784 -1.2608079861248696 0.028898898885802528 -0.12680341148730173 0.27025752640022815 0.57851350684429204 1.5239116327297517 0.61987624344998082 1.7915267162735944 0.56501981528247158 1.323951454558612 -0.57552143554447621 0.049202437844349377 4.6723429313072797 3.9085994538739239 1.9275084721276237 1.0572761747658144 0.51691633237150902 1.0573767482706291 0.92879452031844423 2.7053305266404331 0.89435753473420232 0.049518915388193196 -0.14992527635667682 -0.039077700845797973 0.2839350082002165 0.83832548413442987 -0.29123897806555143 0.2267342379691987 -0.77744122233491864
leaf_weight=8759 1128 65 2607 564 2797 1148 1138 3687 1062 719 251 17112 12793 35 84 154 385 5514 366 2705 153 2075 9006 2403 2878 7273 1056 22362 726 1191
leaf_count=8759 1128 65 2607 564 2797 1148 1138 3687 1062 719 251 17112 12793 35 84 154 385 5514 366 2705 153 2075 9006 2403 2878 7273 1056 22362 726 1191
internal_value=0 0.424246 -0.222166 0.327886 -0.0618846 -0.121839 0.708152 0.176258 1.29322 -0.418374 -0.228947 -0.463537 0.099081 1.01698 1.94704 0.483724 1.71934 0.602439 0.142326 0.652482 1.52639 0.828839 0.109332 0.0147386 -0.31415 0.134283 0.425968 -0.257813 0.508731 -0.393713
internal_weight=0 38661 73535 34802 40473 36466 9921 24881 3859 33062 25946 29940 21194 2713 1146 4007 573 8783 10520 8219 538 2140 10154 3122 12828 20066 3853 24969 977 9950
internal_count=112196 38661 73535 34802 40473 36466 9921 24881 3859 33062 25946 29940 21194 2713 1146 4007 573 8783 10520 8219 538 2140 10154 3122 12828 20066 3853 24969 977 9950
is_linear=0
shrinkage=0.05


Tree=33
num_leaves=31
num_cat=0
split_feature=19 11 23 3 3 20 11 14 16 11 20 11 34 27 3 19 16 28 28 35 2 16 27 43 28 2 28 28 35 3
split_gain=3.83765e+06 1.18895e+06 857571 733191 537857 366674 329000 285921 236003 218514 163730 162588 129690 127833 116805 97228.6 91824.5 84965.7 141903 84530.8 92097.4 80003.3 71923.5 70027.2 97056 84584.6 68036.4 131824 81154.9 67707.9
threshold=88.500000000000014 1.0000000180025095e-35 55.500000000000007 3.5000000000000004 3.5000000000000004 182.10714285714289 1.0000000180025095e-35 155.50000000000003 184.07142857142861 1.0000000180025095e-35 63.678571428571438 1.0000000180025095e-35 0.25000000000000006 93.500000000000014 3.5000000000000004 179.50000000000003 234.50000000000003 43.500000000000007 44.500000000000007 -0.9330127018922193 6.5000000000000009 143.50000000000003 72.500000000000014 1.0000000180025095e-35 43.500000000000007 3.5000000000000004 43.500000000000007 44.500000000000007 -0.9330127018922193 4.5000000000000009
decision_type=2 2 2 2 2 2 2 2 2 2 2 2 2 2 2 2 2 2 2 2 2 2 2 2 2 2 2 2 2 2
left_child=2 3 10 8 9 13 17 29 21 23 -1 14 16 26 -12 -7 -9 19 -19 20 -6 -2 -21 -4 -25 -26 28 -28 -5 -3
right_child=1 7 4 5 6 15 -8 12 -10 -11 11 -13 -14 -15 -16 -17 -18 18 -20 22 -22 -23 -24 24 25 -27 27 -29 -30 -31
